{"learner":{"attributes":{"scikit_learn":"{\"_estimator_type\": \"classifier\"}"},"feature_names":["avg_monthly_inflow","inflow_volatility","avg_monthly_outflow","min_balance_30d","neg_balance_days_30d","purchase_to_inflow_ratio","total_burden_ratio","buffer_ratio","stress_index"],"feature_types":["float","float","float","float","int","float","float","float","float"],"gradient_booster":{"model":{"cats":{"enc":[],"feature_segments":[],"sorted_idx":[]},"gbtree_model_param":{"num_parallel_tree":"1","num_trees":"600"},"iteration_indptr":[0,1,2,3,4,5,6,7,8,9,10,11,12,13,14,15,16,17,18,19,20,21,22,23,24,25,26,27,28,29,30,31,32,33,34,35,36,37,38,39,40,41,42,43,44,45,46,47,48,49,50,51,52,53,54,55,56,57,58,59,60,61,62,63,64,65,66,67,68,69,70,71,72,73,74,75,76,77,78,79,80,81,82,83,84,85,86,87,88,89,90,91,92,93,94,95,96,97,98,99,100,101,102,103,104,105,106,107,108,109,110,111,112,113,114,115,116,117,118,119,120,121,122,123,124,125,126,127,128,129,130,131,132,133,134,135,136,137,138,139,140,141,142,143,144,145,146,147,148,149,150,151,152,153,154,155,156,157,158,159,160,161,162,163,164,165,166,167,168,169,170,171,172,173,174,175,176,177,178,179,180,181,182,183,184,185,186,187,188,189,190,191,192,193,194,195,196,197,198,199,200,201,202,203,204,205,206,207,208,209,210,211,212,213,214,215,216,217,218,219,220,221,222,223,224,225,226,227,228,229,230,231,232,233,234,235,236,237,238,239,240,241,242,243,244,245,246,247,248,249,250,251,252,253,254,255,256,257,258,259,260,261,262,263,264,265,266,267,268,269,270,271,272,273,274,275,276,277,278,279,280,281,282,283,284,285,286,287,288,289,290,291,292,293,294,295,296,297,298,299,300,301,302,303,304,305,306,307,308,309,310,311,312,313,314,315,316,317,318,319,320,321,322,323,324,325,326,327,328,329,330,331,332,333,334,335,336,337,338,339,340,341,342,343,344,345,346,347,348,349,350,351,352,353,354,355,356,357,358,359,360,361,362,363,364,365,366,367,368,369,370,371,372,373,374,375,376,377,378,379,380,381,382,383,384,385,386,387,388,389,390,391,392,393,394,395,396,397,398,399,400,401,402,403,404,405,406,407,408,409,410,411,412,413,414,415,416,417,418,419,420,421,422,423,424,425,426,427,428,429,430,431,432,433,434,435,436,437,438,439,440,441,442,443,444,445,446,447,448,449,450,451,452,453,454,455,456,457,458,459,460,461,462,463,464,465,466,467,468,469,470,471,472,473,474,475,476,477,478,479,480,481,482,483,484,485,486,487,488,489,490,491,492,493,494,495,496,497,498,499,500,501,502,503,504,505,506,507,508,509,510,511,512,513,514,515,516,517,518,519,520,521,522,523,524,525,526,527,528,529,530,531,532,533,534,535,536,537,538,539,540,541,542,543,544,545,546,547,548,549,550,551,552,553,554,555,556,557,558,559,560,561,562,563,564,565,566,567,568,569,570,571,572,573,574,575,576,577,578,579,580,581,582,583,584,585,586,587,588,589,590,591,592,593,594,595,596,597,598,599,600],"tree_info":[0,0,0,0,0,0,0,0,0,0,0,0,0,0,0,0,0,0,0,0,0,0,0,0,0,0,0,0,0,0,0,0,0,0,0,0,0,0,0,0,0,0,0,0,0,0,0,0,0,0,0,0,0,0,0,0,0,0,0,0,0,0,0,0,0,0,0,0,0,0,0,0,0,0,0,0,0,0,0,0,0,0,0,0,0,0,0,0,0,0,0,0,0,0,0,0,0,0,0,0,0,0,0,0,0,0,0,0,0,0,0,0,0,0,0,0,0,0,0,0,0,0,0,0,0,0,0,0,0,0,0,0,0,0,0,0,0,0,0,0,0,0,0,0,0,0,0,0,0,0,0,0,0,0,0,0,0,0,0,0,0,0,0,0,0,0,0,0,0,0,0,0,0,0,0,0,0,0,0,0,0,0,0,0,0,0,0,0,0,0,0,0,0,0,0,0,0,0,0,0,0,0,0,0,0,0,0,0,0,0,0,0,0,0,0,0,0,0,0,0,0,0,0,0,0,0,0,0,0,0,0,0,0,0,0,0,0,0,0,0,0,0,0,0,0,0,0,0,0,0,0,0,0,0,0,0,0,0,0,0,0,0,0,0,0,0,0,0,0,0,0,0,0,0,0,0,0,0,0,0,0,0,0,0,0,0,0,0,0,0,0,0,0,0,0,0,0,0,0,0,0,0,0,0,0,0,0,0,0,0,0,0,0,0,0,0,0,0,0,0,0,0,0,0,0,0,0,0,0,0,0,0,0,0,0,0,0,0,0,0,0,0,0,0,0,0,0,0,0,0,0,0,0,0,0,0,0,0,0,0,0,0,0,0,0,0,0,0,0,0,0,0,0,0,0,0,0,0,0,0,0,0,0,0,0,0,0,0,0,0,0,0,0,0,0,0,0,0,0,0,0,0,0,0,0,0,0,0,0,0,0,0,0,0,0,0,0,0,0,0,0,0,0,0,0,0,0,0,0,0,0,0,0,0,0,0,0,0,0,0,0,0,0,0,0,0,0,0,0,0,0,0,0,0,0,0,0,0,0,0,0,0,0,0,0,0,0,0,0,0,0,0,0,0,0,0,0,0,0,0,0,0,0,0,0,0,0,0,0,0,0,0,0,0,0,0,0,0,0,0,0,0,0,0,0,0,0,0,0,0,0,0,0,0,0,0,0,0,0,0,0,0,0,0,0,0,0,0,0,0,0,0,0,0,0,0,0,0,0,0,0,0,0,0,0,0,0,0,0,0,0,0,0,0,0,0,0,0,0,0,0,0,0,0,0,0,0,0,0,0,0,0,0,0,0,0,0,0,0,0,0,0,0,0,0,0,0,0,0,0,0,0,0,0,0,0,0,0,0,0],"trees":[{"base_weights":[4.0394873E-3,8.296957E-1,-1.3618993E0,1.283802E0,3.2937887E-1,-7.33733E-1,-1.8052137E0,1.0457487E0,1.5496716E0,-5.0701834E-2,7.46206E-1,-1.2082666E0,-2.757195E-1,-1.5092679E0,-1.9309299E0,1.3513535E0,7.2320855E-1,1.790293E0,1.456147E0,2.1920854E-1,-3.6266482E-1,9.148789E-1,3.9438865E-1,-1.0463243E0,-1.4334834E0,1.03462795E-2,-6.954065E-1,-1.6235118E0,-1.0921683E0,-1.8002572E0,-9.957629E-2,1.2175283E0,1.4651637E0,4.0451863E-1,8.51552E-1,1.5959429E0,1.8212789E0,1.2957549E0,1.6220344E0,-2.870506E-1,3.8596103E-1,-7.305509E-1,-1.8680793E-1,7.119024E-1,1.125749E0,1.8837684E-1,5.967207E-1,-1.1490531E0,-4.534905E-1,-1.4450494E0,1.7329295E-1,-2.4108873E-1,5.906627E-1,-7.5446916E-1,4.0228295E-1,-1.6451199E0,-4.734295E-1,7.8730494E-1,-1.1283867E0,-9.020859E-2,-7.9654044E-1,1.8524785E-2,6.2484134E-2,-5E-2,7.354116E-2,-7.333334E-2,2.128813E-2,2.6701106E-2,4.6067882E-2,8.2488365E-2,5.4171156E-2,5.919856E-2,9.1458134E-2,4.7323585E-2,6.854947E-2,8.5663795E-2,7.340116E-2,-3.251087E-2,-5.012621E-3,1.2899065E-2,2.9592717E-2,-1.6142106E-2,-4.1602116E-2,-7.83643E-3,-5.96559E-2,4.1124385E-2,2.3203826E-2,5.2334715E-2,7.140853E-2,1.45774335E-2,-7.1453885E-3,2.3985887E-2,4.489938E-2,-7.3978305E-2,-5.2726265E-2,-3.6110174E-2,3.3618964E-2,-2.2066204E-2,-7.299313E-2,4.70345E-2,-5E-2,-3.9977714E-2,-7.5054686E-3,3.776106E-2,1.3695769E-2,-4.385323E-2,-2.0831713E-2,-6.3236626E-3,6.39775E-2,-3.877347E-3,-8.26499E-2,2.7238298E-2,-8.461539E-2,1.6141592E-3,6.1270814E-2,-6.1080452E-2,-2.2356795E-2,-6.923077E-2,2.6507193E-2],"categories":[],"categories_nodes":[],"categories_segments":[],"categories_sizes":[],"default_left":[0,0,0,0,0,0,0,0,0,0,0,0,0,0,0,0,0,0,0,0,0,0,0,0,0,0,0,0,0,0,0,0,0,0,0,0,0,0,0,0,0,0,0,0,0,0,0,0,0,0,0,0,0,0,0,0,0,0,0,0,0,0,0,0,0,0,0,0,0,0,0,0,0,0,0,0,0,0,0,0,0,0,0,0,0,0,0,0,0,0,0,0,0,0,0,0,0,0,0,0,0,0,0,0,0,0,0,0,0,0,0,0,0,0,0,0,0,0,0],"id":0,"left_children":[1,3,5,7,9,11,13,15,17,19,21,23,25,27,29,31,33,35,37,39,41,43,45,47,49,51,53,55,57,59,-1,61,63,65,67,69,71,73,75,77,79,81,83,85,87,89,91,93,95,97,99,101,103,105,107,109,111,113,115,-1,117,-1,-1,-1,-1,-1,-1,-1,-1,-1,-1,-1,-1,-1,-1,-1,-1,-1,-1,-1,-1,-1,-1,-1,-1,-1,-1,-1,-1,-1,-1,-1,-1,-1,-1,-1,-1,-1,-1,-1,-1,-1,-1,-1,-1,-1,-1,-1,-1,-1,-1,-1,-1,-1,-1,-1,-1,-1,-1],"loss_changes":[1.45712295E4,1.8291055E3,1.3541494E3,2.655249E2,6.072456E2,4.37734E2,1.0322949E2,2.1883545E2,4.221826E1,1.6895975E2,1.0811963E2,3.4594116E1,1.2329821E2,3.8976196E1,1.2241211E1,1.5638672E1,4.4119812E1,4.2468262E-1,3.6204834E1,9.094044E1,6.007731E1,5.205371E1,2.4654099E1,3.476422E1,7.8930054E0,8.939147E1,2.7290909E1,1.5852661E1,1.3612595E1,1.0917969E0,0E0,1.4016907E1,1.0026978E1,1.3106842E1,1.6665894E1,5.3385925E-1,1.9567871E-1,1.806836E1,7.3745117E0,1.8058401E1,2.1184875E1,1.2172867E1,1.8914553E1,1.6937195E1,1.2944153E1,1.0154184E1,1.011924E1,1.3847534E1,2.6873571E1,5.4281616E0,4.390981E0,2.1599276E1,9.44606E0,1.600911E1,1.0323273E1,7.979126E0,1.798159E1,1.3242762E0,1.1126541E1,0E0,4.081852E0,0E0,0E0,0E0,0E0,0E0,0E0,0E0,0E0,0E0,0E0,0E0,0E0,0E0,0E0,0E0,0E0,0E0,0E0,0E0,0E0,0E0,0E0,0E0,0E0,0E0,0E0,0E0,0E0,0E0,0E0,0E0,0E0,0E0,0E0,0E0,0E0,0E0,0E0,0E0,0E0,0E0,0E0,0E0,0E0,0E0,0E0,0E0,0E0,0E0,0E0,0E0,0E0,0E0,0E0,0E0,0E0,0E0,0E0],"parents":[2147483647,0,0,1,1,2,2,3,3,4,4,5,5,6,6,7,7,8,8,9,9,10,10,11,11,12,12,13,13,14,14,15,15,16,16,17,17,18,18,19,19,20,20,21,21,22,22,23,23,24,24,25,25,26,26,27,27,28,28,29,29,31,31,32,32,33,33,34,34,35,35,36,36,37,37,38,38,39,39,40,40,41,41,42,42,43,43,44,44,45,45,46,46,47,47,48,48,49,49,50,50,51,51,52,52,53,53,54,54,55,55,56,56,57,57,58,58,60,60],"right_children":[2,4,6,8,10,12,14,16,18,20,22,24,26,28,30,32,34,36,38,40,42,44,46,48,50,52,54,56,58,60,-1,62,64,66,68,70,72,74,76,78,80,82,84,86,88,90,92,94,96,98,100,102,104,106,108,110,112,114,116,-1,118,-1,-1,-1,-1,-1,-1,-1,-1,-1,-1,-1,-1,-1,-1,-1,-1,-1,-1,-1,-1,-1,-1,-1,-1,-1,-1,-1,-1,-1,-1,-1,-1,-1,-1,-1,-1,-1,-1,-1,-1,-1,-1,-1,-1,-1,-1,-1,-1,-1,-1,-1,-1,-1,-1,-1,-1,-1,-1],"split_conditions":[9.743841E-1,5.5787605E-1,1.3769757E0,3.482186E-1,3.4648058E-1,3.2330072E-1,1.713141E0,3.194193E-1,1.9241326E-1,7.6613325E-1,8.1824505E-1,1.1866577E0,1.1605296E0,3.563095E-1,2.1150005E0,2.8976607E-1,2.667814E-1,1.0804185E-1,4.0273637E-1,2.6063985E-1,2.709138E-1,4.0127227E-1,3.9829317E-1,6.167651E4,1.3341992E5,4.0967023E-1,3.2374084E-1,2.2646956E-1,7.014891E-2,4.6305385E-1,-9.957629E-2,1E0,2.3023346E-2,1.4554782E-1,2.6546492E4,1.0229501E-1,3.4992668E-1,2E0,4.540362E-1,2.2037202E-1,1.5084103E-1,2.040226E4,3.3901227E-1,7.338284E-1,4.8004937E-1,2.9675323E-1,4.6305385E-1,2.3797007E-1,1.5204695E-1,1.4554782E-1,1.4953989E5,1.6139507E-1,4.8474E4,4.0453857E-1,7.183776E4,1.977166E-2,3.1668735E-1,6.416282E-2,2.3934516E-1,-9.020859E-2,5.7728188E4,1.8524785E-2,6.2484134E-2,-5E-2,7.354116E-2,-7.333334E-2,2.128813E-2,2.6701106E-2,4.6067882E-2,8.2488365E-2,5.4171156E-2,5.919856E-2,9.1458134E-2,4.7323585E-2,6.854947E-2,8.5663795E-2,7.340116E-2,-3.251087E-2,-5.012621E-3,1.2899065E-2,2.9592717E-2,-1.6142106E-2,-4.1602116E-2,-7.83643E-3,-5.96559E-2,4.1124385E-2,2.3203826E-2,5.2334715E-2,7.140853E-2,1.45774335E-2,-7.1453885E-3,2.3985887E-2,4.489938E-2,-7.3978305E-2,-5.2726265E-2,-3.6110174E-2,3.3618964E-2,-2.2066204E-2,-7.299313E-2,4.70345E-2,-5E-2,-3.9977714E-2,-7.5054686E-3,3.776106E-2,1.3695769E-2,-4.385323E-2,-2.0831713E-2,-6.3236626E-3,6.39775E-2,-3.877347E-3,-8.26499E-2,2.7238298E-2,-8.461539E-2,1.6141592E-3,6.1270814E-2,-6.1080452E-2,-2.2356795E-2,-6.923077E-2,2.6507193E-2],"split_indices":[7,7,7,8,8,8,7,7,7,7,7,7,7,8,7,8,8,6,8,8,8,8,8,2,2,8,5,6,5,8,0,4,6,8,0,6,8,4,7,8,6,2,5,7,8,5,8,8,6,8,0,5,0,8,0,6,8,5,6,0,0,0,0,0,0,0,0,0,0,0,0,0,0,0,0,0,0,0,0,0,0,0,0,0,0,0,0,0,0,0,0,0,0,0,0,0,0,0,0,0,0,0,0,0,0,0,0,0,0,0,0,0,0,0,0,0,0,0,0],"split_type":[0,0,0,0,0,0,0,0,0,0,0,0,0,0,0,0,0,0,0,0,0,0,0,0,0,0,0,0,0,0,0,0,0,0,0,0,0,0,0,0,0,0,0,0,0,0,0,0,0,0,0,0,0,0,0,0,0,0,0,0,0,0,0,0,0,0,0,0,0,0,0,0,0,0,0,0,0,0,0,0,0,0,0,0,0,0,0,0,0,0,0,0,0,0,0,0,0,0,0,0,0,0,0,0,0,0,0,0,0,0,0,0,0,0,0,0,0,0,0],"sum_hessian":[1.2918093E4,8.0516064E3,4.866487E3,4.2199004E3,3.8317063E3,2.014559E3,2.8519277E3,2.2290205E3,1.9908799E3,2.0046548E3,1.8270514E3,9.88631E2,1.025928E3,8.541641E2,1.9977637E3,1.1429204E3,1.0861E3,5.5215265E2,1.4387272E3,1.0749261E3,9.297287E2,1.2338853E3,5.931662E2,5.783868E2,4.1024417E2,6.1066425E2,4.1526373E2,6.682403E2,1.8592384E2,6.426406E2,1.355123E3,5.306487E2,6.122718E2,3.130118E2,7.730882E2,8.314652E1,4.690061E2,7.359593E2,7.0276794E2,2.661563E2,8.087698E2,2.9967194E2,6.3005676E2,6.309397E2,6.0294556E2,2.9486728E2,2.9829892E2,4.9216412E2,8.622267E1,4.0741214E2,2.8320322E0,4.264708E2,1.8419342E2,3.9435748E2,2.0906258E1,6.5549414E2,1.2746097E1,3.123048E0,1.828008E2,6.393496E2,3.291016E0,1.986524E1,5.1078342E2,1E0,6.112718E2,2.75E0,3.102618E2,1.4088481E2,6.3220337E2,7.323637E1,9.91016E0,7.5781283E0,4.6142798E2,1.3283598E2,6.031233E2,4.349592E2,2.6780872E2,8.955861E1,1.765977E2,5.0014273E2,3.0862704E2,6.0562515E1,2.391094E2,6.128927E2,1.7164064E1,4.346642E2,1.9627545E2,4.8153143E2,1.21414116E2,2.2493561E2,6.9931656E1,2.1672273E2,8.15762E1,1.0619727E2,3.8596686E2,6.989845E1,1.6324224E1,6.3730483E0,4.010391E2,1.8320321E0,1E0,5.865235E1,3.6781845E2,1.2030669E2,6.3886738E1,2.8818362E2,1.0617385E2,1.3578129E1,7.3281283E0,3.3320322E0,6.521621E2,7.246096E0,5.5E0,1.5410161E0,1.5820321E0,1.6009962E2,2.2701176E1,2.25E0,1.0410161E0],"tree_param":{"num_deleted":"0","num_feature":"9","num_nodes":"119","size_leaf_vector":"1"}},{"base_weights":[2.1538534E-3,8.002971E-1,-1.2741123E0,1.2200891E0,3.2564345E-1,-6.8526584E-1,-1.714442E0,9.816817E-1,1.4601588E0,-5.847814E-2,7.1196336E-1,-1.0402552E0,-1.753502E-1,-1.40793E0,-1.845179E0,1.2701026E0,6.7392564E-1,1.5699703E0,1.2425035E0,2.1968256E-1,-4.0259767E-1,5.4799956E-1,9.80633E-1,-1.3143077E0,-8.1928086E-1,1.3030918E-1,-6.007488E-1,-1.53373E0,-9.656805E-1,-1.7327921E0,-9.484064E-2,1.3269016E-1,1.2881606E0,3.3353993E-1,7.787805E-1,1.6842476E0,1.4870621E0,1.0744041E0,1.4197773E0,-2.8183234E-1,3.8785982E-1,-6.3796157E-1,-2.367788E-1,7.4295527E-1,2.727347E-1,1.0907958E0,7.0882624E-1,-1.3508794E0,-4.9306712E-1,-3.4691823E-1,-9.418351E-1,-1.4058454E-1,5.792001E-1,-6.3838625E-1,7.069028E-2,-1.5544938E0,-3.720306E-1,9.420252E-1,-9.995794E-1,-8.682894E-2,-7.671985E-1,2.7472986E-2,-3.6898367E-2,6.86754E-2,5.7162143E-2,1.885967E-2,-4.941508E-2,-3.7249208E-3,4.0204708E-2,6.854945E-2,8.524827E-2,6.871381E-2,8.119073E-2,3.3884697E-2,5.765409E-2,-8.6224405E-4,7.131557E-2,-3.6539376E-2,-6.926776E-3,-6.25309E-2,2.0088622E-2,-3.4623113E-2,2.6534615E-2,-1.8203573E-2,7.434857E-4,3.788836E-2,3.914198E-3,-2.2231617E-3,2.0679124E-2,4.7155365E-2,6.0909487E-2,1.2215663E-3,4.0412344E-2,-7.511975E-2,-5.8884393E-2,3.2582935E-2,-5.4195017E-2,-5.6413174E-2,-7.6475637E-3,-3.718191E-2,-5.3426694E-2,-4.8136003E-2,-5.06996E-3,3.0964857E-2,-3.4857016E-2,-3.4183547E-2,1.4453798E-2,8.807944E-3,-7.811533E-2,2.2296377E-2,-7.84735E-2,6.03252E-2,1.1631229E-2,-5.353387E-2,-2.7843881E-3,2.6423067E-2,-6.725385E-2],"categories":[],"categories_nodes":[],"categories_segments":[],"categories_sizes":[],"default_left":[0,0,0,0,0,0,0,0,0,0,0,0,0,0,0,0,0,0,0,0,0,0,0,0,0,0,0,0,0,0,0,0,0,0,0,0,0,0,0,0,0,0,0,0,0,0,0,0,0,0,0,0,0,0,0,0,0,0,0,0,0,0,0,0,0,0,0,0,0,0,0,0,0,0,0,0,0,0,0,0,0,0,0,0,0,0,0,0,0,0,0,0,0,0,0,0,0,0,0,0,0,0,0,0,0,0,0,0,0,0,0,0,0,0,0,0,0],"id":1,"left_children":[1,3,5,7,9,11,13,15,17,19,21,23,25,27,29,31,33,35,37,39,41,43,45,47,49,51,53,55,57,59,-1,61,63,65,67,69,71,73,75,77,79,81,83,85,87,89,91,93,95,97,99,101,103,105,-1,107,109,111,113,-1,115,-1,-1,-1,-1,-1,-1,-1,-1,-1,-1,-1,-1,-1,-1,-1,-1,-1,-1,-1,-1,-1,-1,-1,-1,-1,-1,-1,-1,-1,-1,-1,-1,-1,-1,-1,-1,-1,-1,-1,-1,-1,-1,-1,-1,-1,-1,-1,-1,-1,-1,-1,-1,-1,-1,-1,-1],"loss_changes":[1.3184554E4,1.5863247E3,1.2900728E3,2.4040918E2,5.548518E2,3.8580304E2,1.11555664E2,1.8759985E2,4.8321777E1,1.7962595E2,8.15813E1,7.504224E1,1.1403356E2,4.6140625E1,8.281738E0,2.2316895E1,3.647589E1,1.0704834E1,1.9635864E1,8.764705E1,3.258426E1,6.2043182E1,2.034314E1,1.6135925E1,4.0110382E1,6.219463E1,2.8699509E1,1.5455322E1,1.3375046E1,1.0046387E0,0E0,7.018888E0,1.1758423E1,1.4460548E1,1.7039856E1,1.418335E0,1.0362671E1,1.0723541E1,3.2407227E0,1.670381E1,1.8229546E1,2.2411102E1,1.58193245E1,6.6198425E0,2.1574112E1,8.257935E0,1.4013817E1,1.2269836E1,1.7902662E1,2.1875526E1,1.311795E1,1.0190716E1,1.0280022E1,1.5341492E1,0E0,9.100708E0,1.34197235E1,4.4572568E-1,1.26501465E1,0E0,3.9214964E0,0E0,0E0,0E0,0E0,0E0,0E0,0E0,0E0,0E0,0E0,0E0,0E0,0E0,0E0,0E0,0E0,0E0,0E0,0E0,0E0,0E0,0E0,0E0,0E0,0E0,0E0,0E0,0E0,0E0,0E0,0E0,0E0,0E0,0E0,0E0,0E0,0E0,0E0,0E0,0E0,0E0,0E0,0E0,0E0,0E0,0E0,0E0,0E0,0E0,0E0,0E0,0E0,0E0,0E0,0E0,0E0],"parents":[2147483647,0,0,1,1,2,2,3,3,4,4,5,5,6,6,7,7,8,8,9,9,10,10,11,11,12,12,13,13,14,14,15,15,16,16,17,17,18,18,19,19,20,20,21,21,22,22,23,23,24,24,25,25,26,26,27,27,28,28,29,29,31,31,32,32,33,33,34,34,35,35,36,36,37,37,38,38,39,39,40,40,41,41,42,42,43,43,44,44,45,45,46,46,47,47,48,48,49,49,50,50,51,51,52,52,53,53,55,55,56,56,57,57,58,58,60,60],"right_children":[2,4,6,8,10,12,14,16,18,20,22,24,26,28,30,32,34,36,38,40,42,44,46,48,50,52,54,56,58,60,-1,62,64,66,68,70,72,74,76,78,80,82,84,86,88,90,92,94,96,98,100,102,104,106,-1,108,110,112,114,-1,116,-1,-1,-1,-1,-1,-1,-1,-1,-1,-1,-1,-1,-1,-1,-1,-1,-1,-1,-1,-1,-1,-1,-1,-1,-1,-1,-1,-1,-1,-1,-1,-1,-1,-1,-1,-1,-1,-1,-1,-1,-1,-1,-1,-1,-1,-1,-1,-1,-1,-1,-1,-1,-1,-1,-1,-1],"split_conditions":[9.6372277E-1,5.5787605E-1,1.3769757E0,3.4217918E-1,3.4293914E-1,3.398917E-1,1.713141E0,3.194193E-1,4.2639264E-1,7.6613325E-1,4.1318154E-1,2.7670872E-1,1.1428012E0,3.563095E-1,2.1150005E0,1.7356136E-1,2.5350267E-1,1.9241326E-1,4.0127227E-1,2.6063985E-1,2.81257E-1,7.783731E-1,8.1824505E-1,7E0,1.0276256E0,4.0790424E-1,3.4022912E-1,2.2646956E-1,7.014891E-2,4.6305385E-1,-9.484064E-2,1.3937895E-1,1.9241326E-1,1.0978208E4,1.03356324E-1,3.490952E-1,4.0273637E-1,2E0,1.5347463E3,2.100717E-1,3.752559E-2,1.00973586E5,1.0356207E4,1.9420639E4,3.6173648E-1,2.4828139E-1,2.2418371E-1,2.4532741E-1,1.0689609E0,2.8112512E4,1.1428012E0,3.640161E3,2.621202E4,4.8004937E-1,7.069028E-2,1.977166E-2,3.1668735E-1,4.2076137E4,4.6808675E-1,-8.682894E-2,4.6808675E-1,2.7472986E-2,-3.6898367E-2,6.86754E-2,5.7162143E-2,1.885967E-2,-4.941508E-2,-3.7249208E-3,4.0204708E-2,6.854945E-2,8.524827E-2,6.871381E-2,8.119073E-2,3.3884697E-2,5.765409E-2,-8.6224405E-4,7.131557E-2,-3.6539376E-2,-6.926776E-3,-6.25309E-2,2.0088622E-2,-3.4623113E-2,2.6534615E-2,-1.8203573E-2,7.434857E-4,3.788836E-2,3.914198E-3,-2.2231617E-3,2.0679124E-2,4.7155365E-2,6.0909487E-2,1.2215663E-3,4.0412344E-2,-7.511975E-2,-5.8884393E-2,3.2582935E-2,-5.4195017E-2,-5.6413174E-2,-7.6475637E-3,-3.718191E-2,-5.3426694E-2,-4.8136003E-2,-5.06996E-3,3.0964857E-2,-3.4857016E-2,-3.4183547E-2,1.4453798E-2,8.807944E-3,-7.811533E-2,2.2296377E-2,-7.84735E-2,6.03252E-2,1.1631229E-2,-5.353387E-2,-2.7843881E-3,2.6423067E-2,-6.725385E-2],"split_indices":[7,7,7,8,8,8,7,7,7,7,8,8,7,8,7,8,8,7,8,8,8,7,7,4,7,8,5,6,5,8,0,7,7,3,5,8,8,4,3,8,6,0,3,3,8,6,5,8,7,0,7,3,3,8,0,6,8,0,8,0,8,0,0,0,0,0,0,0,0,0,0,0,0,0,0,0,0,0,0,0,0,0,0,0,0,0,0,0,0,0,0,0,0,0,0,0,0,0,0,0,0,0,0,0,0,0,0,0,0,0,0,0,0,0,0,0,0],"split_type":[0,0,0,0,0,0,0,0,0,0,0,0,0,0,0,0,0,0,0,0,0,0,0,0,0,0,0,0,0,0,0,0,0,0,0,0,0,0,0,0,0,0,0,0,0,0,0,0,0,0,0,0,0,0,0,0,0,0,0,0,0,0,0,0,0,0,0,0,0,0,0,0,0,0,0,0,0,0,0,0,0,0,0,0,0,0,0,0,0,0,0,0,0,0,0,0,0,0,0,0,0,0,0,0,0,0,0,0,0,0,0,0,0,0,0,0,0],"sum_hessian":[1.2941247E4,7.962243E3,4.979004E3,4.224474E3,3.7377693E3,2.1313445E3,2.8476597E3,2.122129E3,2.102345E3,1.8746427E3,1.8631266E3,1.2559479E3,8.7539667E2,8.5496594E2,1.9926937E3,1.0938624E3,1.0282665E3,1.3932234E3,7.091217E2,1.036873E3,8.3776965E2,1.1589078E3,7.042187E2,5.5843207E2,6.9751575E2,5.097921E2,3.6560455E2,6.637041E2,1.9126184E2,6.381812E2,1.3545126E3,1.7225595E1,1.0766368E3,2.4314296E2,7.8512354E2,5.776703E2,8.155531E2,3.6760352E2,3.4151822E2,2.602163E2,7.7665674E2,3.4509427E2,4.9267538E2,6.7742456E2,4.8148334E2,4.989729E2,2.0524576E2,5.340066E2,2.4425491E1,1.4447902E2,5.5303674E2,3.1835822E2,1.914339E2,3.5956992E2,6.034649E0,6.517174E2,1.1986661E1,2.8715634E0,1.8839027E2,6.3489307E2,3.288139E0,1.1898766E1,5.326831E0,6.722476E2,4.0438916E2,2.3606174E2,7.0812297E0,2.2564646E1,7.625589E2,4.0002018E1,5.376682E2,4.5299582E2,3.6255728E2,6.243016E1,3.0517334E2,1.5384357E0,3.3997977E2,6.196801E1,1.9824829E2,5.7907753E0,7.7086597E2,3.3010703E2,1.4987235E1,3.2688083E2,1.6579456E2,6.6252045E2,1.4904087E1,1.4826518E2,3.3321814E2,2.3497194E2,2.6400098E2,2.619175E1,1.79054E2,2.8073386E2,2.5327274E2,8.280079E0,1.6145412E1,2.7775578E1,1.16703445E2,2.1834517E2,3.3469156E2,1.341131E1,3.049469E2,1.8610216E2,5.331733E0,3.4308133E2,1.6488577E1,2.8320212E0,6.488854E2,7.494706E0,4.491955E0,1.5812896E0,1.2902738E0,1.7506898E2,1.3321285E1,1.0405778E0,2.2475615E0],"tree_param":{"num_deleted":"0","num_feature":"9","num_nodes":"117","size_leaf_vector":"1"}},{"base_weights":[3.5107064E-3,6.981302E-1,-1.3159881E0,1.1553324E0,2.4129389E-1,-8.019892E-1,-1.6761587E0,1.3633941E0,9.6482855E-1,4.6494693E-2,6.428454E-1,-1.1166602E0,-5.305013E-1,-1.5235541E0,-9.086434E-2,1.2398741E0,1.520653E0,8.003913E-1,1.276486E0,-4.0786478E-1,2.3690784E-1,9.262162E-1,3.808896E-1,-1.3006171E0,-8.5908705E-1,-1.5691346E-1,-7.8367835E-1,-1.5482588E0,-6.2614566E-1,1.0886089E0,1.3712207E0,1.3322054E0,1.5884823E0,5.3922397E-1,1.0551244E0,3.191074E-1,1.3212309E0,-9.864679E-2,-6.992945E-1,4.5974466E-1,-2.6376572E-2,6.368233E-1,1.0955628E0,-3.5044406E-2,6.087653E-1,-1.4136814E0,-1.0979753E0,-2.832425E-1,-1.0005277E0,-3.5491034E-1,2.9743853E-1,-8.7129086E-1,-1.5525559E-1,-1.3554937E0,-1.6084768E0,-8.25484E-1,5.114674E-1,-6.8083905E-2,5.5021156E-2,7.332672E-2,6.1963852E-2,6.751996E-2,-5.9737414E-2,7.544975E-2,8.363352E-2,1.8970596E-2,3.680971E-2,4.729827E-2,6.203726E-2,-6.4431527E-3,5.0387263E-2,6.1468568E-2,7.331018E-2,-1.9333076E-2,7.83853E-3,-3.755026E-2,1.5979942E-2,1.5465549E-2,3.2835152E-2,-1.4112668E-2,1.9698787E-2,1.91814E-2,4.0796556E-2,4.817302E-2,6.471115E-2,-1.8910654E-2,6.382232E-3,2.6433771E-2,5.171864E-2,-5.8128525E-2,-7.489707E-2,-6.911267E-2,-4.1333415E-2,-2.7818996E-2,3.4987252E-2,-6.0946237E-2,-2.9608438E-2,-2.9292895E-2,-3.098389E-3,1.1372833E-2,6.1239094E-2,-4.4595785E-2,6.1141748E-2,1.8034576E-2,-2.0088296E-2,-6.864738E-2,3.0542454E-2,-8.1599236E-2,-6.7705385E-2,2.6748389E-2,-5.1385786E-2,5.9020367E-2,-1.9067084E-2],"categories":[],"categories_nodes":[],"categories_segments":[],"categories_sizes":[],"default_left":[0,0,0,0,0,0,0,0,0,0,0,0,0,0,0,0,0,0,0,0,0,0,0,0,0,0,0,0,0,0,0,0,0,0,0,0,0,0,0,0,0,0,0,0,0,0,0,0,0,0,0,0,0,0,0,0,0,0,0,0,0,0,0,0,0,0,0,0,0,0,0,0,0,0,0,0,0,0,0,0,0,0,0,0,0,0,0,0,0,0,0,0,0,0,0,0,0,0,0,0,0,0,0,0,0,0,0,0,0,0,0,0,0],"id":2,"left_children":[1,3,5,7,9,11,13,15,17,19,21,23,25,27,-1,29,31,33,35,37,39,41,43,45,47,49,51,53,55,57,59,61,63,65,67,69,71,73,75,77,79,81,83,85,87,89,91,93,95,97,99,101,103,105,107,109,111,-1,-1,-1,-1,-1,-1,-1,-1,-1,-1,-1,-1,-1,-1,-1,-1,-1,-1,-1,-1,-1,-1,-1,-1,-1,-1,-1,-1,-1,-1,-1,-1,-1,-1,-1,-1,-1,-1,-1,-1,-1,-1,-1,-1,-1,-1,-1,-1,-1,-1,-1,-1,-1,-1,-1,-1],"loss_changes":[1.1813851E4,1.7634355E3,8.215952E2,1.6595752E2,3.3046268E2,1.560365E2,5.3503906E1,3.724951E1,1.1205469E2,2.4632259E2,1.0208905E2,3.9075928E1,9.315152E1,2.6999512E1,0E0,2.1033936E1,9.156372E0,9.570056E1,3.21521E1,7.5704285E1,1.1771291E2,3.1756592E1,6.815198E1,9.741089E0,2.8741913E1,3.605378E1,3.2214172E1,1.2063721E1,8.467547E0,1.6893127E1,5.7661133E0,1.2629456E1,1.7807617E0,2.2276321E1,1.3648132E1,1.1010365E1,7.8675537E0,3.0158375E1,2.3038528E1,3.1991913E1,9.912605E1,1.0881622E1,9.680176E0,1.4305586E1,1.52847595E1,4.8791504E0,1.2817535E1,1.9631107E1,2.475821E1,1.8823868E1,7.6277475E0,2.3353302E1,9.443355E0,1.1081238E1,3.348877E0,8.960634E0,3.9781146E0,0E0,0E0,0E0,0E0,0E0,0E0,0E0,0E0,0E0,0E0,0E0,0E0,0E0,0E0,0E0,0E0,0E0,0E0,0E0,0E0,0E0,0E0,0E0,0E0,0E0,0E0,0E0,0E0,0E0,0E0,0E0,0E0,0E0,0E0,0E0,0E0,0E0,0E0,0E0,0E0,0E0,0E0,0E0,0E0,0E0,0E0,0E0,0E0,0E0,0E0,0E0,0E0,0E0,0E0,0E0,0E0],"parents":[2147483647,0,0,1,1,2,2,3,3,4,4,5,5,6,6,7,7,8,8,9,9,10,10,11,11,12,12,13,13,15,15,16,16,17,17,18,18,19,19,20,20,21,21,22,22,23,23,24,24,25,25,26,26,27,27,28,28,29,29,30,30,31,31,32,32,33,33,34,34,35,35,36,36,37,37,38,38,39,39,40,40,41,41,42,42,43,43,44,44,45,45,46,46,47,47,48,48,49,49,50,50,51,51,52,52,53,53,54,54,55,55,56,56],"right_children":[2,4,6,8,10,12,14,16,18,20,22,24,26,28,-1,30,32,34,36,38,40,42,44,46,48,50,52,54,56,58,60,62,64,66,68,70,72,74,76,78,80,82,84,86,88,90,92,94,96,98,100,102,104,106,108,110,112,-1,-1,-1,-1,-1,-1,-1,-1,-1,-1,-1,-1,-1,-1,-1,-1,-1,-1,-1,-1,-1,-1,-1,-1,-1,-1,-1,-1,-1,-1,-1,-1,-1,-1,-1,-1,-1,-1,-1,-1,-1,-1,-1,-1,-1,-1,-1,-1,-1,-1,-1,-1,-1,-1,-1,-1],"split_conditions":[1.0342009E0,5.5787605E-1,1.4491059E0,3.194193E-1,1.8703659E-1,5.986288E-1,2.1150005E0,1.5620418E-1,2.000966E-1,5.3565025E-1,7.4439675E-1,1.2593994E-1,1.1605296E0,2.245021E-1,-9.086434E-2,6.047132E-1,5.203955E-1,6.2008905E-1,3.7877285E-1,7.6613325E-1,8.01209E-1,5.652856E-1,5.652856E-1,4E0,1.0833845E0,1.7540501E-1,2.1365814E-1,1.5694346E0,6.965102E4,2.3650803E-1,1.5896635E-1,5.1921356E-1,2.2097753E-1,1.2818766E-1,7.5005215E-1,4E0,2.9425746E-1,4.554707E-1,1.00973586E5,6.900492E-1,7.227461E-1,3E0,2.7652025E-1,4.466211E-1,8.194674E-1,1.2692729E-1,3.9389668E4,2.5291333E-1,5.292686E-1,7.227461E-1,9.278325E-1,3.363659E-1,2.3174806E-1,9E0,8.118588E-1,7.8282534E3,7.942009E4,-6.8083905E-2,5.5021156E-2,7.332672E-2,6.1963852E-2,6.751996E-2,-5.9737414E-2,7.544975E-2,8.363352E-2,1.8970596E-2,3.680971E-2,4.729827E-2,6.203726E-2,-6.4431527E-3,5.0387263E-2,6.1468568E-2,7.331018E-2,-1.9333076E-2,7.83853E-3,-3.755026E-2,1.5979942E-2,1.5465549E-2,3.2835152E-2,-1.4112668E-2,1.9698787E-2,1.91814E-2,4.0796556E-2,4.817302E-2,6.471115E-2,-1.8910654E-2,6.382232E-3,2.6433771E-2,5.171864E-2,-5.8128525E-2,-7.489707E-2,-6.911267E-2,-4.1333415E-2,-2.7818996E-2,3.4987252E-2,-6.0946237E-2,-2.9608438E-2,-2.9292895E-2,-3.098389E-3,1.1372833E-2,6.1239094E-2,-4.4595785E-2,6.1141748E-2,1.8034576E-2,-2.0088296E-2,-6.864738E-2,3.0542454E-2,-8.1599236E-2,-6.7705385E-2,2.6748389E-2,-5.1385786E-2,5.9020367E-2,-1.9067084E-2],"split_indices":[7,7,7,7,6,1,7,6,6,1,7,6,7,6,0,1,1,1,1,7,7,1,1,4,7,6,6,7,0,1,7,1,6,6,1,4,6,1,0,1,1,4,6,1,1,5,0,6,1,1,1,5,6,4,1,3,0,0,0,0,0,0,0,0,0,0,0,0,0,0,0,0,0,0,0,0,0,0,0,0,0,0,0,0,0,0,0,0,0,0,0,0,0,0,0,0,0,0,0,0,0,0,0,0,0,0,0,0,0,0,0,0,0],"split_type":[0,0,0,0,0,0,0,0,0,0,0,0,0,0,0,0,0,0,0,0,0,0,0,0,0,0,0,0,0,0,0,0,0,0,0,0,0,0,0,0,0,0,0,0,0,0,0,0,0,0,0,0,0,0,0,0,0,0,0,0,0,0,0,0,0,0,0,0,0,0,0,0,0,0,0,0,0,0,0,0,0,0,0,0,0,0,0,0,0,0,0,0,0,0,0,0,0,0,0,0,0,0,0,0,0,0,0,0,0,0,0,0,0],"sum_hessian":[1.2887483E4,8.443218E3,4.444265E3,4.2191543E3,4.2240635E3,1.8324315E3,2.6118335E3,2.0137024E3,2.205452E3,2.8450156E3,1.3790479E3,8.472751E2,9.8515643E2,1.2605605E3,1.351273E3,1.1328115E3,8.8089087E2,1.446052E3,7.5939996E2,8.398479E2,2.0051678E3,6.6122815E2,7.178197E2,4.9190823E2,3.5536685E2,3.9860092E2,5.8655554E2,1.2260826E3,3.4477993E1,5.3080194E2,6.0200964E2,2.3860982E2,6.4228107E2,7.155476E2,7.305044E2,3.4270264E1,7.251297E2,4.0813727E2,4.3171063E2,1.0855995E3,9.195683E2,2.4585396E2,4.153742E2,2.54371E2,4.634487E2,3.119044E2,1.8000385E2,7.066648E1,2.8470038E2,2.7777246E2,1.20828445E2,5.144467E2,7.210884E1,2.974425E2,9.286401E2,2.9570816E1,4.9071765E0,1.9987444E0,5.2880316E2,3.436489E2,2.5836072E2,2.3736641E2,1.2434095E0,3.4009778E2,3.021833E2,3.966507E2,3.1889688E2,4.6383215E2,2.666722E2,2.125585E1,1.3014414E1,4.4967844E2,2.7545126E2,1.9158624E2,2.1655104E2,4.1110907E2,2.060159E1,6.169517E2,4.6864774E2,5.718192E2,3.4774915E2,1.03161644E2,1.4269232E2,2.5299246E2,1.6238174E2,8.138228E1,1.7298874E2,3.91937E2,7.1511665E1,8.208199E1,2.298224E2,8.590106E1,9.410278E1,5.5640064E1,1.5026414E1,1.8420149E2,1.0049888E2,1.5476236E2,1.2301011E2,1.1350786E2,7.3205857E0,5.0999786E2,4.4488215E0,2.3163776E1,4.8945065E1,2.9512466E2,2.3178177E0,8.4512085E2,8.351926E1,3.6139238E0,2.5956892E1,2.6211472E0,2.2860296E0],"tree_param":{"num_deleted":"0","num_feature":"9","num_nodes":"113","size_leaf_vector":"1"}},{"base_weights":[-2.58819E-4,7.2398674E-1,-1.1689523E0,1.0935974E0,2.846021E-1,-6.293869E-1,-1.5695314E0,8.6820465E-1,1.3229667E0,-4.815592E-2,6.612846E-1,-1.0389183E0,-2.5298977E-1,-1.2887213E0,-1.6900866E0,1.1428635E0,5.773033E-1,1.4424816E0,1.1195729E0,1.9163594E-1,-3.2856935E-1,8.257654E-1,4.3885773E-1,-5.375703E-1,-1.1075506E0,-4.3171644E-1,1.9524036E-1,-1.3994827E0,-9.015815E-1,-1.5733967E0,-8.71695E-2,4.6955347E-1,1.1711458E0,3.119174E-1,7.194018E-1,1.5255911E0,1.3553649E0,9.851717E-1,1.2693695E0,-1.12614065E-1,4.212098E-1,-5.4689693E-1,-1.8552935E-1,6.7894614E-1,9.712257E-1,-1.6335481E-1,5.446255E-1,-8.3231705E-1,-7.003408E-2,-1.1881819E0,-8.189556E-1,-2.4568205E-1,-6.9612104E-1,4.4363657E-1,-3.3415496E-1,-1.4066352E0,-1.3404459E-1,4.83916E-1,-9.30898E-1,-1.5770446E0,-6.1776334E-1,-6.400758E-2,2.780041E-2,6.6558845E-2,5.396927E-2,2.4118628E-3,2.4421386E-2,4.1590653E-2,2.9219767E-2,7.3620215E-2,8.256041E-2,6.2625706E-2,7.4116305E-2,2.799329E-2,5.3410865E-2,6.406053E-2,-5.899799E-3,-2.9704144E-2,2.2060952E-4,2.4623599E-2,3.7313688E-3,-5.177735E-2,-2.3940943E-2,-1.524088E-2,1.0279785E-2,3.5703193E-2,8.596289E-3,-3.6713377E-2,4.9128015E-2,2.3928066E-3,-7.2548576E-2,2.2991199E-2,4.698436E-2,-2.4700547E-2,-7.69929E-2,4.2350966E-2,-1.6343258E-2,-6.2144693E-2,-4.1562628E-2,-9.449965E-3,-4.6277802E-2,-3.508827E-2,-8.803674E-3,-4.4496942E-2,-2.4073405E-2,2.8536616E-2,-1.1214524E-3,-2.2569073E-2,6.111848E-2,-6.6766895E-2,-7.6071724E-2,-6.003219E-2,5.1920433E-2,-1.4184842E-2,6.0029007E-2,-5.203998E-2,-2.3638284E-2,-8.291062E-2,-7.56679E-2,-6.0832538E-2,2.807591E-2],"categories":[],"categories_nodes":[],"categories_segments":[],"categories_sizes":[],"default_left":[0,0,0,0,0,0,0,0,0,0,0,0,0,0,0,0,0,0,0,0,0,0,0,0,0,0,0,0,0,0,0,0,0,0,0,0,0,0,0,0,0,0,0,0,0,0,0,0,0,0,0,0,0,0,0,0,0,0,0,0,0,0,0,0,0,0,0,0,0,0,0,0,0,0,0,0,0,0,0,0,0,0,0,0,0,0,0,0,0,0,0,0,0,0,0,0,0,0,0,0,0,0,0,0,0,0,0,0,0,0,0,0,0,0,0,0,0,0,0,0,0],"id":3,"left_children":[1,3,5,7,9,11,13,15,17,19,21,23,25,27,29,31,33,35,37,39,41,43,45,47,49,51,53,55,57,59,-1,61,63,65,67,69,71,73,75,77,79,81,83,85,87,89,91,93,95,97,99,101,103,105,107,109,111,113,115,117,119,-1,-1,-1,-1,-1,-1,-1,-1,-1,-1,-1,-1,-1,-1,-1,-1,-1,-1,-1,-1,-1,-1,-1,-1,-1,-1,-1,-1,-1,-1,-1,-1,-1,-1,-1,-1,-1,-1,-1,-1,-1,-1,-1,-1,-1,-1,-1,-1,-1,-1,-1,-1,-1,-1,-1,-1,-1,-1,-1,-1],"loss_changes":[1.0821774E4,1.2816211E3,1.0563013E3,2.2047412E2,4.5224304E2,3.2127795E2,9.2839355E1,1.7232715E2,4.9987305E1,1.2892984E2,6.154883E1,3.3767822E1,8.7265915E1,3.5068848E1,9.45166E0,2.063733E1,3.950299E1,7.5878906E0,1.465741E1,7.2249664E1,2.7498894E1,2.0092957E1,4.6047333E1,1.67809E1,1.9445679E1,3.8114456E1,4.103421E1,5.7576904E0,8.220245E0,1.2045898E0,0E0,7.7488956E0,1.4232788E1,1.7156746E1,9.914734E0,2.0754395E0,6.7626953E0,1.4269531E1,6.23291E0,2.5095102E1,1.45195465E1,1.1124657E1,2.5046019E1,8.547119E0,1.0112457E1,2.9594107E1,2.013733E1,1.715709E1,1.1662408E1,1.2317261E1,1.2909393E1,1.4430302E1,1.2922791E1,1.257383E1,1.8773932E1,3.3145752E0,7.246565E0,2.8830862E0,8.956924E0,7.056885E-1,3.522813E0,0E0,0E0,0E0,0E0,0E0,0E0,0E0,0E0,0E0,0E0,0E0,0E0,0E0,0E0,0E0,0E0,0E0,0E0,0E0,0E0,0E0,0E0,0E0,0E0,0E0,0E0,0E0,0E0,0E0,0E0,0E0,0E0,0E0,0E0,0E0,0E0,0E0,0E0,0E0,0E0,0E0,0E0,0E0,0E0,0E0,0E0,0E0,0E0,0E0,0E0,0E0,0E0,0E0,0E0,0E0,0E0,0E0,0E0,0E0,0E0],"parents":[2147483647,0,0,1,1,2,2,3,3,4,4,5,5,6,6,7,7,8,8,9,9,10,10,11,11,12,12,13,13,14,14,15,15,16,16,17,17,18,18,19,19,20,20,21,21,22,22,23,23,24,24,25,25,26,26,27,27,28,28,29,29,31,31,32,32,33,33,34,34,35,35,36,36,37,37,38,38,39,39,40,40,41,41,42,42,43,43,44,44,45,45,46,46,47,47,48,48,49,49,50,50,51,51,52,52,53,53,54,54,55,55,56,56,57,57,58,58,59,59,60,60],"right_children":[2,4,6,8,10,12,14,16,18,20,22,24,26,28,30,32,34,36,38,40,42,44,46,48,50,52,54,56,58,60,-1,62,64,66,68,70,72,74,76,78,80,82,84,86,88,90,92,94,96,98,100,102,104,106,108,110,112,114,116,118,120,-1,-1,-1,-1,-1,-1,-1,-1,-1,-1,-1,-1,-1,-1,-1,-1,-1,-1,-1,-1,-1,-1,-1,-1,-1,-1,-1,-1,-1,-1,-1,-1,-1,-1,-1,-1,-1,-1,-1,-1,-1,-1,-1,-1,-1,-1,-1,-1,-1,-1,-1,-1,-1,-1,-1,-1,-1,-1,-1,-1],"split_conditions":[9.6372277E-1,5.701178E-1,1.3769757E0,3.4217918E-1,3.482186E-1,3.211618E-1,1.713141E0,3.294892E-1,4.1864288E-1,7.6613325E-1,7.783731E-1,1.0005063E0,4.0967023E-1,3.563095E-1,2.1150005E0,1.9701497E-1,2.7236342E-1,2.3964497E-1,4.0273637E-1,2.8758532E-1,2.81257E-1,4.0127227E-1,3.626208E-1,2.8587624E-1,5.996925E-1,1.1605296E0,1.1695412E0,9E0,7.014891E-2,4.6305385E-1,-8.71695E-2,5.9287604E-2,3.8436856E2,3E0,4.7414437E-1,4.2212424E-1,4.0273637E-1,2E0,1.1213671E5,2.1871206E-1,5.3299316E4,1.1963539E-1,5E0,7.252352E4,1.2567984E-1,3.0969593E-1,4.6305385E-1,4.965545E-1,5.305581E-1,6.167651E4,2.827717E-1,1.5761738E-1,3.5642234E4,1.6403883E4,3.331941E-1,1.5694346E0,3.222548E4,6.416282E-2,5E0,3E0,9.1353816E-1,-6.400758E-2,2.780041E-2,6.6558845E-2,5.396927E-2,2.4118628E-3,2.4421386E-2,4.1590653E-2,2.9219767E-2,7.3620215E-2,8.256041E-2,6.2625706E-2,7.4116305E-2,2.799329E-2,5.3410865E-2,6.406053E-2,-5.899799E-3,-2.9704144E-2,2.2060952E-4,2.4623599E-2,3.7313688E-3,-5.177735E-2,-2.3940943E-2,-1.524088E-2,1.0279785E-2,3.5703193E-2,8.596289E-3,-3.6713377E-2,4.9128015E-2,2.3928066E-3,-7.2548576E-2,2.2991199E-2,4.698436E-2,-2.4700547E-2,-7.69929E-2,4.2350966E-2,-1.6343258E-2,-6.2144693E-2,-4.1562628E-2,-9.449965E-3,-4.6277802E-2,-3.508827E-2,-8.803674E-3,-4.4496942E-2,-2.4073405E-2,2.8536616E-2,-1.1214524E-3,-2.2569073E-2,6.111848E-2,-6.6766895E-2,-7.6071724E-2,-6.003219E-2,5.1920433E-2,-1.4184842E-2,6.0029007E-2,-5.203998E-2,-2.3638284E-2,-8.291062E-2,-7.56679E-2,-6.0832538E-2,2.807591E-2],"split_indices":[7,7,7,8,8,8,7,7,7,7,7,7,8,8,7,8,8,7,8,8,8,8,8,8,1,7,7,4,5,8,0,5,3,4,7,8,8,4,2,8,2,5,4,2,5,5,8,1,1,2,8,5,2,3,5,7,2,5,4,4,1,0,0,0,0,0,0,0,0,0,0,0,0,0,0,0,0,0,0,0,0,0,0,0,0,0,0,0,0,0,0,0,0,0,0,0,0,0,0,0,0,0,0,0,0,0,0,0,0,0,0,0,0,0,0,0,0,0,0,0,0],"split_type":[0,0,0,0,0,0,0,0,0,0,0,0,0,0,0,0,0,0,0,0,0,0,0,0,0,0,0,0,0,0,0,0,0,0,0,0,0,0,0,0,0,0,0,0,0,0,0,0,0,0,0,0,0,0,0,0,0,0,0,0,0,0,0,0,0,0,0,0,0,0,0,0,0,0,0,0,0,0,0,0,0,0,0,0,0,0,0,0,0,0,0,0,0,0,0,0,0,0,0,0,0,0,0,0,0,0,0,0,0,0,0,0,0,0,0,0,0,0,0,0,0],"sum_hessian":[1.2783332E4,7.892616E3,4.890716E3,4.2858594E3,3.606757E3,2.0849438E3,2.8057717E3,2.1640808E3,2.1217786E3,1.9154966E3,1.6912606E3,9.976791E2,1.0872648E3,8.462603E2,1.9595116E3,1.1116094E3,1.0524714E3,1.3326292E3,7.8914935E2,1.0327072E3,8.8278937E2,9.707189E2,7.2054175E2,1.2119597E2,8.764831E2,7.773444E2,3.099204E2,6.559709E2,1.9028941E2,6.2399615E2,1.3355154E3,4.55202E1,1.0660891E3,3.6813336E2,6.843381E2,6.735491E2,6.590801E2,4.19943E2,3.6920633E2,4.4434045E2,5.883667E2,3.4831662E2,5.344727E2,4.859234E2,4.8479544E2,1.0756304E2,6.1297876E2,7.385541E1,4.734056E1,6.8264136E2,1.9384172E2,4.5742828E2,3.1991614E2,2.110542E2,9.8866196E1,6.521731E2,3.7977808E0,3.6216874E0,1.8666772E2,6.2097546E2,3.0206928E0,1.4931917E0,4.4027008E1,3.835923E2,6.824969E2,1.48127E2,2.2000636E2,3.7060095E2,3.1373712E2,4.8213284E2,1.9141623E2,3.701157E2,2.8896436E2,6.986768E1,3.5007532E2,3.6615775E2,3.0486012E0,8.608666E1,3.5825378E2,4.8767337E2,1.00693344E2,4.0855232E1,3.074614E2,4.0973068E2,1.2474207E2,4.5406512E2,3.1858261E1,2.7795696E0,4.8201587E2,9.323269E1,1.4330354E1,5.0643454E2,1.06544205E2,5.1113857E1,2.2741556E1,9.854751E0,3.748581E1,5.8975806E2,9.28833E1,2.845567E1,1.6538606E2,5.9367035E1,3.9806125E2,1.6646396E2,1.5345216E2,1.6565549E2,4.539871E1,9.2602066E1,6.264131E0,4.101048E2,2.4206833E2,1.9760724E0,1.8217083E0,2.0403879E0,1.5812995E0,1.49526E2,3.714172E1,2.620101E2,3.5896536E2,1.9823078E0,1.038385E0],"tree_param":{"num_deleted":"0","num_feature":"9","num_nodes":"121","size_leaf_vector":"1"}},{"base_weights":[-1.4799482E-2,6.662273E-1,-1.1365956E0,1.0514767E0,2.3094931E-1,-5.980108E-1,-1.5050379E0,7.6285267E-1,1.2105178E0,-9.046674E-2,5.663159E-1,-1.0184451E0,-2.2136877E-1,-1.2307404E0,-1.6253886E0,1.0525458E0,4.5892015E-1,1.4309535E0,1.1003251E0,1.3582613E-1,-3.4978548E-1,7.132144E-1,2.7853063E-1,-1.2480528E0,-8.736053E-1,1.5845546E-2,-5.927862E-1,-1.3007625E0,-5.9268874E-1,-1.506728E0,-8.414929E-2,3.228595E-1,1.0795509E0,2.0188423E-1,5.7181454E-1,1.3864447E0,1.5921208E0,9.705582E-1,1.333409E0,-1.2075476E-1,3.7706587E-1,-5.75551E-1,-2.2181311E-1,6.0703117E-1,9.410582E-1,6.433612E-2,5.6719196E-1,-1.28315E0,-5.365495E-1,-7.4232376E-1,-1.125149E0,-1.5285204E-1,5.926049E-1,-7.293376E-1,-2.646219E-1,-1.3466296E0,-7.169162E-1,-7.020301E-1,4.556958E-1,-1.457068E0,-1.6237371E0,2.7793894E-2,-7.609857E-2,6.221501E-2,4.8643857E-2,-7.587748E-2,1.1699778E-2,-2.4781695E-2,3.0383868E-2,6.943042E-2,4.8156097E-3,2.4233123E-2,8.007934E-2,5.427586E-2,4.3418612E-2,7.141482E-2,6.0070425E-2,-2.36186E-2,1.2594262E-3,2.5751544E-2,7.462328E-3,-2.4882182E-2,-6.538755E-2,-8.476823E-3,-4.439522E-2,-3.2564163E-2,3.0584821E-2,3.7708204E-2,5.4212045E-2,-3.3302282E-3,2.1246344E-2,3.0810613E-2,-1.825542E-2,-3.5448916E-2,-6.613718E-2,-5.5603396E-2,1.6147299E-2,-4.4804443E-2,-2.2265384E-2,-5.1078003E-2,-7.309964E-2,-2.5540397E-2,-7.464308E-4,-6.314918E-2,3.1059144E-2,-4.6766903E-2,-2.494987E-2,-1.7517546E-2,5.3335346E-2,-7.4403696E-2,-6.406563E-2,-1.3888222E-2,-5.368494E-2,-1.8544579E-2,-5.0533872E-2,-3.474413E-2,6.606598E-2,-7.416129E-2,-3.0538682E-2,-8.192718E-2,1.4378743E-2],"categories":[],"categories_nodes":[],"categories_segments":[],"categories_sizes":[],"default_left":[0,0,0,0,0,0,0,0,0,0,0,0,0,0,0,0,0,0,0,0,0,0,0,0,0,0,0,0,0,0,0,0,0,0,0,0,0,0,0,0,0,0,0,0,0,0,0,0,0,0,0,0,0,0,0,0,0,0,0,0,0,0,0,0,0,0,0,0,0,0,0,0,0,0,0,0,0,0,0,0,0,0,0,0,0,0,0,0,0,0,0,0,0,0,0,0,0,0,0,0,0,0,0,0,0,0,0,0,0,0,0,0,0,0,0,0,0,0,0,0,0],"id":4,"left_children":[1,3,5,7,9,11,13,15,17,19,21,23,25,27,29,31,33,35,37,39,41,43,45,47,49,51,53,55,57,59,-1,61,63,65,67,69,71,73,75,77,79,81,83,85,87,89,91,93,95,97,99,101,103,105,107,109,111,113,115,117,119,-1,-1,-1,-1,-1,-1,-1,-1,-1,-1,-1,-1,-1,-1,-1,-1,-1,-1,-1,-1,-1,-1,-1,-1,-1,-1,-1,-1,-1,-1,-1,-1,-1,-1,-1,-1,-1,-1,-1,-1,-1,-1,-1,-1,-1,-1,-1,-1,-1,-1,-1,-1,-1,-1,-1,-1,-1,-1,-1,-1],"loss_changes":[9.712876E3,1.3263567E3,9.52124E2,1.917041E2,4.0056488E2,3.0896484E2,9.211963E1,1.3101947E2,6.410278E1,1.11433426E2,7.66781E1,2.958374E1,9.086228E1,3.8258545E1,1.0986816E1,1.4704651E1,2.1086014E1,4.23291E0,5.3362305E1,6.282997E1,2.5435715E1,2.8540344E1,3.8062E1,8.162598E0,1.7951935E1,6.141286E1,1.7817978E1,2.0092896E1,1.0433485E1,1.4465332E0,0E0,1.3179067E1,1.1728149E1,1.2751515E1,1.9714401E1,1.8515625E0,1.1898499E0,1.2736328E1,6.345093E0,2.527448E1,1.6362732E1,1.757286E1,1.9569681E1,5.233185E0,9.369751E0,1.6782665E1,1.2214348E1,6.7247925E0,9.451256E0,1.6807602E1,5.2463684E0,2.4105963E1,8.358776E0,1.2973907E1,1.4032285E1,4.8186035E0,9.011028E0,7.8309555E0,9.821064E0,9.506287E0,5.756012E0,0E0,0E0,0E0,0E0,0E0,0E0,0E0,0E0,0E0,0E0,0E0,0E0,0E0,0E0,0E0,0E0,0E0,0E0,0E0,0E0,0E0,0E0,0E0,0E0,0E0,0E0,0E0,0E0,0E0,0E0,0E0,0E0,0E0,0E0,0E0,0E0,0E0,0E0,0E0,0E0,0E0,0E0,0E0,0E0,0E0,0E0,0E0,0E0,0E0,0E0,0E0,0E0,0E0,0E0,0E0,0E0,0E0,0E0,0E0,0E0],"parents":[2147483647,0,0,1,1,2,2,3,3,4,4,5,5,6,6,7,7,8,8,9,9,10,10,11,11,12,12,13,13,14,14,15,15,16,16,17,17,18,18,19,19,20,20,21,21,22,22,23,23,24,24,25,25,26,26,27,27,28,28,29,29,31,31,32,32,33,33,34,34,35,35,36,36,37,37,38,38,39,39,40,40,41,41,42,42,43,43,44,44,45,45,46,46,47,47,48,48,49,49,50,50,51,51,52,52,53,53,54,54,55,55,56,56,57,57,58,58,59,59,60,60],"right_children":[2,4,6,8,10,12,14,16,18,20,22,24,26,28,30,32,34,36,38,40,42,44,46,48,50,52,54,56,58,60,-1,62,64,66,68,70,72,74,76,78,80,82,84,86,88,90,92,94,96,98,100,102,104,106,108,110,112,114,116,118,120,-1,-1,-1,-1,-1,-1,-1,-1,-1,-1,-1,-1,-1,-1,-1,-1,-1,-1,-1,-1,-1,-1,-1,-1,-1,-1,-1,-1,-1,-1,-1,-1,-1,-1,-1,-1,-1,-1,-1,-1,-1,-1,-1,-1,-1,-1,-1,-1,-1,-1,-1,-1,-1,-1,-1,-1,-1,-1,-1,-1],"split_conditions":[9.743841E-1,5.641715E-1,1.3544189E0,3.1314862E-1,3.4293914E-1,3.211618E-1,1.6951176E0,3.194193E-1,2.3964497E-1,7.6613325E-1,8.1237686E-1,4.8739952E-1,1.1605296E0,1.9084488E-1,2.1150005E0,1.8567555E-1,2.4954171E-1,4.2212424E-1,4.0273637E-1,2.9199168E-1,2.741227E-1,4.2212424E-1,4.0790424E-1,2.5424016E4,1.2037625E0,4.2212424E-1,4.0127227E-1,3.9565027E-1,6.5870734E4,4.3645016E4,-8.414929E-2,5.6907336E4,3.8436856E2,1.4554782E-1,1.03356324E-1,7.2910283E3,1.131409E4,4.1864288E-1,4.540362E-1,2.3662448E-1,6.0866064E-1,5.434203E-1,3.274275E-1,8.21136E3,2.5291333E-1,7.6190823E-1,2.2582451E4,9.9396986E-1,4.3891343E-1,4.4024957E4,4.9793285E4,1.0868583E-1,4.1368696E3,3.5642234E4,3.331941E-1,2.6222377E4,8.5463417E-1,1.3968253E4,2.2268055E-1,4.249157E4,4.6305385E-1,2.7793894E-2,-7.609857E-2,6.221501E-2,4.8643857E-2,-7.587748E-2,1.1699778E-2,-2.4781695E-2,3.0383868E-2,6.943042E-2,4.8156097E-3,2.4233123E-2,8.007934E-2,5.427586E-2,4.3418612E-2,7.141482E-2,6.0070425E-2,-2.36186E-2,1.2594262E-3,2.5751544E-2,7.462328E-3,-2.4882182E-2,-6.538755E-2,-8.476823E-3,-4.439522E-2,-3.2564163E-2,3.0584821E-2,3.7708204E-2,5.4212045E-2,-3.3302282E-3,2.1246344E-2,3.0810613E-2,-1.825542E-2,-3.5448916E-2,-6.613718E-2,-5.5603396E-2,1.6147299E-2,-4.4804443E-2,-2.2265384E-2,-5.1078003E-2,-7.309964E-2,-2.5540397E-2,-7.464308E-4,-6.314918E-2,3.1059144E-2,-4.6766903E-2,-2.494987E-2,-1.7517546E-2,5.3335346E-2,-7.4403696E-2,-6.406563E-2,-1.3888222E-2,-5.368494E-2,-1.8544579E-2,-5.0533872E-2,-3.474413E-2,6.606598E-2,-7.416129E-2,-3.0538682E-2,-8.192718E-2,1.4378743E-2],"split_indices":[7,7,7,8,8,8,7,7,7,7,7,1,7,6,7,8,8,8,8,8,8,8,8,3,7,8,8,8,2,2,0,2,3,8,5,3,2,7,7,8,1,1,5,2,6,1,3,7,1,2,2,6,3,2,5,2,1,3,6,2,8,0,0,0,0,0,0,0,0,0,0,0,0,0,0,0,0,0,0,0,0,0,0,0,0,0,0,0,0,0,0,0,0,0,0,0,0,0,0,0,0,0,0,0,0,0,0,0,0,0,0,0,0,0,0,0,0,0,0,0,0],"split_type":[0,0,0,0,0,0,0,0,0,0,0,0,0,0,0,0,0,0,0,0,0,0,0,0,0,0,0,0,0,0,0,0,0,0,0,0,0,0,0,0,0,0,0,0,0,0,0,0,0,0,0,0,0,0,0,0,0,0,0,0,0,0,0,0,0,0,0,0,0,0,0,0,0,0,0,0,0,0,0,0,0,0,0,0,0,0,0,0,0,0,0,0,0,0,0,0,0,0,0,0,0,0,0,0,0,0,0,0,0,0,0,0,0,0,0,0,0,0,0,0,0],"sum_hessian":[1.2711643E4,7.909999E3,4.8016436E3,4.1953896E3,3.7146094E3,1.9515347E3,2.850109E3,1.492547E3,2.7028425E3,1.8971279E3,1.8174814E3,9.2135223E2,1.0301825E3,8.725844E2,1.9775247E3,7.6291345E2,7.296336E2,8.968157E2,1.8060269E3,1.01332904E3,8.837989E2,1.2022966E3,6.1518475E2,3.534416E2,5.6791064E2,6.292529E2,4.009296E2,7.853578E2,8.722662E1,6.550872E2,1.3224374E3,2.7689526E1,7.3522394E2,2.235186E2,5.06115E2,7.102669E2,1.8654878E2,1.1634519E3,6.425749E2,4.9129285E2,5.2203613E2,3.184682E2,5.653307E2,8.2260016E2,3.796965E2,3.53845E2,2.6133972E2,3.3606088E2,1.7380707E1,3.757542E2,1.9215642E2,4.8742105E2,1.4183186E2,2.8225775E2,1.18671844E2,7.269426E2,5.841515E1,7.928768E1,7.938944E0,4.6934445E2,1.8574275E2,2.5204641E1,2.484884E0,2.847637E2,4.5046024E2,3.249726E0,2.2026888E2,1.603439E1,4.900806E2,7.090015E2,1.2653712E0,2.0233994E0,1.8452538E2,5.4297894E2,6.2047296E2,3.6812842E2,2.7444644E2,1.4344882E2,3.4784402E2,3.2435153E2,1.9768462E2,2.8935953E2,2.9108692E1,5.25354E2,3.9976685E1,2.526581E0,8.200736E2,1.6742561E2,2.122709E2,2.6018118E2,9.366383E1,2.4860703E2,1.27327E1,2.2898716E1,3.1316217E2,1.0234094E1,7.1466136E0,2.4625249E2,1.2950171E2,1.5004587E2,4.211055E1,1.348189E2,3.5260217E2,1.4960805E0,1.4033578E2,1.4738554E2,1.3487221E2,1.12184715E2,6.4871306E0,2.2276399E2,5.0417862E2,2.6982191E1,3.143296E1,3.9312325E1,3.9975357E1,3.4931414E0,4.445802E0,4.5454248E2,1.4801958E1,1.8445651E2,1.2862388E0],"tree_param":{"num_deleted":"0","num_feature":"9","num_nodes":"121","size_leaf_vector":"1"}},{"base_weights":[5.9721507E-3,-7.175695E-1,3.316106E-1,6.6024333E-1,-1.0058687E0,8.228821E-1,2.4026494E-2,1.156501E0,2.7390185E-1,-1.3513222E0,-7.8253704E-1,1.2088419E0,6.0980374E-1,-3.827752E-1,3.4398067E-1,1.2575245E0,8.9420813E-1,-3.906851E-1,5.827883E-1,-8.365488E-1,-1.4433762E0,-3.414823E-1,-9.7798234E-1,1.0015192E0,1.354609E0,2.712776E-1,9.375756E-1,-5.5203396E-1,-6.5995924E-2,1.10585496E-1,6.2267125E-1,4.0314642E-1,1.2798988E0,-4.6804714E-1,9.931393E-1,-7.4294835E-1,2.9487115E-1,-2.3811777E-1,7.0736283E-1,-1.1600335E0,3.1076446E-1,-1.4663093E0,-9.1358167E-1,-9.2309695E-1,1.9573408E-1,-1.2201796E0,-8.1931263E-1,5.033938E-1,1.1113896E0,8.6836267E-1,1.3778517E0,-1.06286354E-1,5.626453E-1,6.978015E-1,1.1246761E0,-9.0322E-1,-3.808298E-1,-4.463286E-1,8.016433E-2,3.0809218E-1,-3.2601768E-1,3.664689E-1,7.8804857E-1,6.969271E-2,-3.9687205E-2,7.824339E-2,6.1808374E-2,-8.2948364E-2,4.0312734E-2,-3.3773985E-2,5.2731205E-2,-7.11886E-2,-1.7727284E-2,6.542546E-2,5.9045195E-3,-3.226061E-2,2.8209278E-2,4.2934347E-2,1.5655717E-2,-8.168467E-2,-4.5832362E-2,4.2611402E-3,5.7118066E-2,-6.471312E-2,-7.757146E-2,2.9367229E-2,-6.2113162E-2,-5.3545136E-2,-1.4249046E-2,-4.715686E-3,3.3405963E-2,-7.196481E-2,-4.9307715E-2,-1.9252134E-2,-5.5158414E-2,4.5040056E-2,1.1605223E-2,3.8760115E-4,5.6161713E-2,8.590603E-3,5.133307E-2,6.395955E-2,7.3037915E-2,-3.522424E-2,2.6234689E-3,-3.0907905E-2,3.1661097E-2,1.4002323E-2,4.3323122E-2,4.0438127E-2,6.0307182E-2,-3.4268863E-2,-6.301423E-2,4.8928186E-3,-3.3660334E-2,-4.8318595E-2,-1.2860623E-2,7.160574E-3,-3.1025885E-2,-4.02978E-3,3.3624522E-2,-5.9421103E-2,-9.936481E-3,3.0432899E-2,6.899051E-3,4.445621E-2,2.0597657E-2],"categories":[],"categories_nodes":[],"categories_segments":[],"categories_sizes":[],"default_left":[0,0,0,0,0,0,0,0,0,0,0,0,0,0,0,0,0,0,0,0,0,0,0,0,0,0,0,0,0,0,0,0,0,0,0,0,0,0,0,0,0,0,0,0,0,0,0,0,0,0,0,0,0,0,0,0,0,0,0,0,0,0,0,0,0,0,0,0,0,0,0,0,0,0,0,0,0,0,0,0,0,0,0,0,0,0,0,0,0,0,0,0,0,0,0,0,0,0,0,0,0,0,0,0,0,0,0,0,0,0,0,0,0,0,0,0,0,0,0,0,0,0,0,0,0,0,0],"id":5,"left_children":[1,3,5,7,9,11,13,15,17,19,21,23,25,27,29,31,33,35,37,39,41,43,45,47,49,51,53,55,57,59,61,63,65,67,69,71,73,75,77,79,81,83,85,87,89,91,93,95,97,99,101,103,105,107,109,111,113,115,117,119,121,123,125,-1,-1,-1,-1,-1,-1,-1,-1,-1,-1,-1,-1,-1,-1,-1,-1,-1,-1,-1,-1,-1,-1,-1,-1,-1,-1,-1,-1,-1,-1,-1,-1,-1,-1,-1,-1,-1,-1,-1,-1,-1,-1,-1,-1,-1,-1,-1,-1,-1,-1,-1,-1,-1,-1,-1,-1,-1,-1,-1,-1,-1,-1,-1,-1],"loss_changes":[2.9940571E3,1.567345E3,1.3241975E3,1.3064627E2,2.5060864E2,2.7675244E2,7.017171E2,6.790222E0,7.933993E1,5.9421387E1,1.7065369E2,3.4883423E1,2.4119159E2,1.2722711E2,1.9621927E2,3.5591736E0,1.2124542E1,2.9894653E1,2.711512E1,7.327672E1,1.1830811E1,1.9096951E2,5.1800537E1,2.6744629E1,6.729126E0,1.179728E2,4.879419E1,9.265872E1,4.6047256E1,1.4182652E2,5.7977844E1,9.288209E0,6.486511E-1,1.1258549E1,9.020348E0,2.1035141E1,7.447741E0,1.1947854E1,1.339518E1,1.6194534E1,8.155121E0,1.3183594E1,2.422572E1,2.7364426E1,4.366762E1,2.6362976E1,1.0227936E2,9.707796E0,5.3236084E0,3.6493492E0,3.592041E0,4.4453613E1,5.0821625E1,3.407254E1,1.4958679E1,3.8511932E1,1.4584718E2,2.236483E1,2.654011E1,1.604075E2,5.6012074E1,2.9871574E1,3.1370178E1,0E0,0E0,0E0,0E0,0E0,0E0,0E0,0E0,0E0,0E0,0E0,0E0,0E0,0E0,0E0,0E0,0E0,0E0,0E0,0E0,0E0,0E0,0E0,0E0,0E0,0E0,0E0,0E0,0E0,0E0,0E0,0E0,0E0,0E0,0E0,0E0,0E0,0E0,0E0,0E0,0E0,0E0,0E0,0E0,0E0,0E0,0E0,0E0,0E0,0E0,0E0,0E0,0E0,0E0,0E0,0E0,0E0,0E0,0E0,0E0,0E0,0E0,0E0,0E0],"parents":[2147483647,0,0,1,1,2,2,3,3,4,4,5,5,6,6,7,7,8,8,9,9,10,10,11,11,12,12,13,13,14,14,15,15,16,16,17,17,18,18,19,19,20,20,21,21,22,22,23,23,24,24,25,25,26,26,27,27,28,28,29,29,30,30,31,31,32,32,33,33,34,34,35,35,36,36,37,37,38,38,39,39,40,40,41,41,42,42,43,43,44,44,45,45,46,46,47,47,48,48,49,49,50,50,51,51,52,52,53,53,54,54,55,55,56,56,57,57,58,58,59,59,60,60,61,61,62,62],"right_children":[2,4,6,8,10,12,14,16,18,20,22,24,26,28,30,32,34,36,38,40,42,44,46,48,50,52,54,56,58,60,62,64,66,68,70,72,74,76,78,80,82,84,86,88,90,92,94,96,98,100,102,104,106,108,110,112,114,116,118,120,122,124,126,-1,-1,-1,-1,-1,-1,-1,-1,-1,-1,-1,-1,-1,-1,-1,-1,-1,-1,-1,-1,-1,-1,-1,-1,-1,-1,-1,-1,-1,-1,-1,-1,-1,-1,-1,-1,-1,-1,-1,-1,-1,-1,-1,-1,-1,-1,-1,-1,-1,-1,-1,-1,-1,-1,-1,-1,-1,-1,-1,-1,-1,-1,-1,-1],"split_conditions":[8.833957E-2,2.3993623E3,5.267811E3,7.5076324E2,5.3143006E-2,2.1718208E3,3.398917E-1,1.9370041E2,2.2698738E4,4.0925374E3,5.5842925E3,3.287341E-1,3.490952E-1,1.5084103E-1,2.0973308E-1,3.3654124E-1,2.0389536E-1,7.043082E-2,3.676065E-2,3.6740293E4,8.9779516E4,3.0089502E4,4.3048906E4,1.51896875E4,1.3297944E4,2.7194764E4,2.8472531E4,4.029374E4,2.8508404E-1,1.2164911E4,4.0790424E-1,4.1233614E-2,1.4706676E4,3.3712805E4,2.6580237E-2,1.2816833E4,7.226816E-2,1.9555007E3,1.9555007E3,2.1654832E4,7.883461E-1,7.1295024E3,9.786991E3,3.3825392E-1,3.1451362E-1,2.8900123E-1,1.0978208E4,1.211943E3,1.817436E-1,8.21136E3,3.8202593E-1,1.7649268E4,2.1697734E-1,1.6035959E-1,3.685145E-1,8.250842E3,1.0289029E4,3.688746E4,3.3575383E-1,4.045051E4,4.637084E4,9.388294E3,1.4713796E4,6.969271E-2,-3.9687205E-2,7.824339E-2,6.1808374E-2,-8.2948364E-2,4.0312734E-2,-3.3773985E-2,5.2731205E-2,-7.11886E-2,-1.7727284E-2,6.542546E-2,5.9045195E-3,-3.226061E-2,2.8209278E-2,4.2934347E-2,1.5655717E-2,-8.168467E-2,-4.5832362E-2,4.2611402E-3,5.7118066E-2,-6.471312E-2,-7.757146E-2,2.9367229E-2,-6.2113162E-2,-5.3545136E-2,-1.4249046E-2,-4.715686E-3,3.3405963E-2,-7.196481E-2,-4.9307715E-2,-1.9252134E-2,-5.5158414E-2,4.5040056E-2,1.1605223E-2,3.8760115E-4,5.6161713E-2,8.590603E-3,5.133307E-2,6.395955E-2,7.3037915E-2,-3.522424E-2,2.6234689E-3,-3.0907905E-2,3.1661097E-2,1.4002323E-2,4.3323122E-2,4.0438127E-2,6.0307182E-2,-3.4268863E-2,-6.301423E-2,4.8928186E-3,-3.3660334E-2,-4.8318595E-2,-1.2860623E-2,7.160574E-3,-3.1025885E-2,-4.02978E-3,3.3624522E-2,-5.9421103E-2,-9.936481E-3,3.0432899E-2,6.899051E-3,4.445621E-2,2.0597657E-2],"split_indices":[6,3,3,3,6,3,8,3,0,3,3,8,8,6,6,1,8,6,6,2,2,0,0,2,0,0,0,0,8,3,8,6,2,0,6,2,6,3,3,0,1,3,3,8,8,8,3,3,8,2,8,0,8,6,8,3,3,0,8,0,0,3,3,0,0,0,0,0,0,0,0,0,0,0,0,0,0,0,0,0,0,0,0,0,0,0,0,0,0,0,0,0,0,0,0,0,0,0,0,0,0,0,0,0,0,0,0,0,0,0,0,0,0,0,0,0,0,0,0,0,0,0,0,0,0,0,0],"split_type":[0,0,0,0,0,0,0,0,0,0,0,0,0,0,0,0,0,0,0,0,0,0,0,0,0,0,0,0,0,0,0,0,0,0,0,0,0,0,0,0,0,0,0,0,0,0,0,0,0,0,0,0,0,0,0,0,0,0,0,0,0,0,0,0,0,0,0,0,0,0,0,0,0,0,0,0,0,0,0,0,0,0,0,0,0,0,0,0,0,0,0,0,0,0,0,0,0,0,0,0,0,0,0,0,0,0,0,0,0,0,0,0,0,0,0,0,0,0,0,0,0,0,0,0,0,0,0],"sum_hessian":[1.2705513E4,3.9430898E3,8.762423E3,6.820777E2,3.2610122E3,3.3731584E3,5.3892646E3,2.9769427E2,3.8438342E2,1.2784427E3,1.9825696E3,1.1981729E3,2.1749856E3,2.3725366E3,3.0167278E3,2.1217838E2,8.551591E1,1.2188215E2,2.6250125E2,1.9546643E2,1.0829763E3,6.096163E2,1.3729534E3,4.978944E2,7.002784E2,1.0708392E3,1.1041464E3,1.5458359E3,8.2670056E2,1.6425431E3,1.3741848E3,5.9000344E0,2.0627834E2,5.537331E0,7.997858E1,8.045684E1,4.142531E1,3.446652E1,2.2803474E2,1.5246724E2,4.299919E1,1.0363484E3,4.6627834E1,2.923676E2,3.1724863E2,5.407893E2,8.32164E2,9.098276E1,4.0691165E2,3.3696507E1,6.665819E2,4.66704E2,6.0413525E2,4.8602383E2,6.181225E2,5.0521918E2,1.0406168E3,2.2893108E2,5.977695E2,1.1311416E3,5.114015E2,5.4032697E2,8.3385785E2,3.138022E0,2.7620125E0,2.2816223E1,1.8346211E2,2.7062738E0,2.8310573E0,2.487405E0,7.7491165E1,2.8258081E1,5.219876E1,5.201085E0,3.6224224E1,2.2994661E1,1.1471856E1,1.6393404E2,6.410071E1,4.981288E1,1.0265436E2,3.469253E1,8.306659E0,3.483858E2,6.8796265E2,8.235122E0,3.839271E1,2.3683232E2,5.5535297E1,1.9705551E2,1.2019312E2,2.76631E2,2.641583E2,3.2986337E2,5.0230063E2,3.597019E1,5.5012566E1,4.3383217E0,4.0257333E2,6.6259923E0,2.7070517E1,3.1187347E2,3.5470844E2,9.716071E1,3.695433E2,3.3635036E1,5.7050024E2,1.40552E2,3.4547183E2,1.2896223E2,4.8916028E2,3.155957E2,1.8962347E2,3.9484033E2,6.457765E2,5.9954514E1,1.6897656E2,5.491525E2,4.8616966E1,5.477061E2,5.834355E2,6.470109E1,4.467004E2,2.6149142E2,2.788355E2,6.561526E2,1.7770523E2],"tree_param":{"num_deleted":"0","num_feature":"9","num_nodes":"127","size_leaf_vector":"1"}},{"base_weights":[3.1326232E-3,6.347238E-1,-1.0603327E0,9.8678154E-1,2.4819478E-1,-5.8270556E-1,-1.4377351E0,1.1687707E0,8.198713E-1,9.8009795E-2,6.14692E-1,-9.6289766E-1,-3.5065252E-1,-1.1837023E0,-1.536495E0,1.0842373E0,1.3368769E0,6.087865E-1,1.0050251E0,-1.6239764E-1,3.3915165E-1,4.500483E-1,8.1682163E-1,-9.96447E-1,4.02467E-2,-1.0716312E-1,-6.529538E-1,-1.2443606E0,-5.658093E-1,-1.4275126E0,-7.935353E-2,8.7610376E-1,1.186435E0,1.2817065E0,7.4528694E-2,3.6788777E-1,8.7899953E-1,3.79646E-1,1.0391631E0,1.6420189E-1,-3.4735197E-1,5.592934E-1,1.5064778E-2,2.0741054E-1,5.9754395E-1,8.762199E-1,4.5688984E-1,-1.3284737E0,-8.929543E-1,7.053964E-1,-1.0047867E0,-2.877065E-1,3.0216816E-1,-7.412283E-1,-1.0500229E-1,-1.3038896E0,-6.9987476E-1,8.87538E-1,-6.7987204E-1,-7.287248E-2,-1.2850014E0,-2.5062172E-2,4.540838E-2,6.372706E-2,5.4248672E-2,-1.85856E-2,6.441875E-2,2.6791532E-2,7.950853E-3,3.989311E-2,5.6361258E-2,4.635523E-2,5.3022983E-3,4.5411892E-2,5.7215333E-2,-6.7730458E-3,1.3181915E-2,-2.8616881E-2,-6.992649E-3,-6.636432E-3,3.1109972E-2,-9.290647E-3,1.1263053E-2,2.659359E-2,-9.0260515E-3,2.4466908E-2,3.8493436E-2,3.7802562E-2,5.3703267E-2,4.9269847E-3,4.4494357E-2,-6.844343E-2,-9.213058E-3,-5.621151E-2,-3.6336493E-2,-2.539328E-3,5.3265907E-2,4.5795087E-2,-7.827537E-2,-7.429614E-2,-1.1620733E-2,-1.8773492E-3,2.2175657E-2,-5.817908E-2,-2.996479E-2,-3.698654E-2,9.308781E-3,2.4598416E-2,-6.561726E-2,-2.7838597E-2,-7.732024E-2,-4.9179565E-2,8.406191E-2,-5.110618E-2,-1.28863035E-2,-6.54063E-2,7.5293304E-3],"categories":[],"categories_nodes":[],"categories_segments":[],"categories_sizes":[],"default_left":[0,0,0,0,0,0,0,0,0,0,0,0,0,0,0,0,0,0,0,0,0,0,0,0,0,0,0,0,0,0,0,0,0,0,0,0,0,0,0,0,0,0,0,0,0,0,0,0,0,0,0,0,0,0,0,0,0,0,0,0,0,0,0,0,0,0,0,0,0,0,0,0,0,0,0,0,0,0,0,0,0,0,0,0,0,0,0,0,0,0,0,0,0,0,0,0,0,0,0,0,0,0,0,0,0,0,0,0,0,0,0,0,0,0,0,0,0],"id":6,"left_children":[1,3,5,7,9,11,13,15,17,19,21,23,25,27,29,31,33,35,37,39,41,43,45,47,49,51,53,55,57,59,-1,61,63,65,-1,67,69,71,73,75,77,79,81,83,85,87,89,91,93,95,97,99,101,103,105,107,109,111,113,-1,115,-1,-1,-1,-1,-1,-1,-1,-1,-1,-1,-1,-1,-1,-1,-1,-1,-1,-1,-1,-1,-1,-1,-1,-1,-1,-1,-1,-1,-1,-1,-1,-1,-1,-1,-1,-1,-1,-1,-1,-1,-1,-1,-1,-1,-1,-1,-1,-1,-1,-1,-1,-1,-1,-1,-1,-1],"loss_changes":[8.432775E3,1.0716353E3,8.424131E2,1.2424707E2,2.0667488E2,1.8198077E2,6.372461E1,2.6538574E1,8.354834E1,1.674276E2,3.5958588E1,2.6381165E1,9.450363E1,2.6869995E1,8.084961E0,2.694873E1,3.6411133E0,6.5340515E1,2.4063232E1,7.750789E1,9.87475E1,2.148433E1,1.0049194E1,2.4839417E1,1.8983194E1,5.2767414E1,2.7638306E1,2.0774536E1,1.1809694E1,7.089844E-1,0E0,1.9760712E1,6.480835E0,5.869507E0,0E0,1.8682602E1,8.661896E0,9.019756E0,1.390686E1,1.3869247E1,3.815059E1,3.596466E1,2.3726868E1,2.9020802E1,6.615402E0,9.136414E0,1.0979243E1,7.97171E0,2.1498108E1,4.586376E0,1.2890268E1,3.2460712E1,1.0516426E1,2.8875854E1,1.5046537E1,9.787109E0,7.3889008E0,9.603664E0,8.874533E0,0E0,3.9651947E0,0E0,0E0,0E0,0E0,0E0,0E0,0E0,0E0,0E0,0E0,0E0,0E0,0E0,0E0,0E0,0E0,0E0,0E0,0E0,0E0,0E0,0E0,0E0,0E0,0E0,0E0,0E0,0E0,0E0,0E0,0E0,0E0,0E0,0E0,0E0,0E0,0E0,0E0,0E0,0E0,0E0,0E0,0E0,0E0,0E0,0E0,0E0,0E0,0E0,0E0,0E0,0E0,0E0,0E0,0E0,0E0],"parents":[2147483647,0,0,1,1,2,2,3,3,4,4,5,5,6,6,7,7,8,8,9,9,10,10,11,11,12,12,13,13,14,14,15,15,16,16,17,17,18,18,19,19,20,20,21,21,22,22,23,23,24,24,25,25,26,26,27,27,28,28,29,29,31,31,32,32,33,33,35,35,36,36,37,37,38,38,39,39,40,40,41,41,42,42,43,43,44,44,45,45,46,46,47,47,48,48,49,49,50,50,51,51,52,52,53,53,54,54,55,55,56,56,57,57,58,58,60,60],"right_children":[2,4,6,8,10,12,14,16,18,20,22,24,26,28,30,32,34,36,38,40,42,44,46,48,50,52,54,56,58,60,-1,62,64,66,-1,68,70,72,74,76,78,80,82,84,86,88,90,92,94,96,98,100,102,104,106,108,110,112,114,-1,116,-1,-1,-1,-1,-1,-1,-1,-1,-1,-1,-1,-1,-1,-1,-1,-1,-1,-1,-1,-1,-1,-1,-1,-1,-1,-1,-1,-1,-1,-1,-1,-1,-1,-1,-1,-1,-1,-1,-1,-1,-1,-1,-1,-1,-1,-1,-1,-1,-1,-1,-1,-1,-1,-1,-1,-1],"split_conditions":[9.743841E-1,5.5787605E-1,1.3979114E0,3.194193E-1,7.0204806E-1,5.6878436E-1,1.713141E0,1.7715804E-1,1.5204695E-1,1.4647141E-1,1.5823121E-1,2.8713002E4,1.1605296E0,1.9084488E-1,2.1150005E0,5.507531E-1,2.994181E-1,6.282707E-1,3.7877285E-1,7.006455E-1,7.783731E-1,7.6190823E-1,9.0121144E-1,4.0770254E-1,1.1781422E0,1.7430787E-1,2.0973308E-1,8.044832E-1,6.7345327E3,5E0,-7.935353E-2,2.934199E-1,1.3937895E-1,2.6186863E-1,7.4528694E-2,4.606436E-1,7.9813504E-1,4.0327558E-1,2.1365814E-1,4.8315284E-1,5.549964E-1,3.9105293E-1,5.702593E-1,3.1185674E4,4E0,2.4828139E-1,8.073688E-1,7E0,1.0162348E-1,4.3891343E-1,8.909045E4,1.8560977E4,3.1958455E4,6.282707E-1,2.9054906E4,1.977166E-2,5.8706508E4,5.63722E3,3.8329625E4,-7.287248E-2,1.1944522E5,-2.5062172E-2,4.540838E-2,6.372706E-2,5.4248672E-2,-1.85856E-2,6.441875E-2,2.6791532E-2,7.950853E-3,3.989311E-2,5.6361258E-2,4.635523E-2,5.3022983E-3,4.5411892E-2,5.7215333E-2,-6.7730458E-3,1.3181915E-2,-2.8616881E-2,-6.992649E-3,-6.636432E-3,3.1109972E-2,-9.290647E-3,1.1263053E-2,2.659359E-2,-9.0260515E-3,2.4466908E-2,3.8493436E-2,3.7802562E-2,5.3703267E-2,4.9269847E-3,4.4494357E-2,-6.844343E-2,-9.213058E-3,-5.621151E-2,-3.6336493E-2,-2.539328E-3,5.3265907E-2,4.5795087E-2,-7.827537E-2,-7.429614E-2,-1.1620733E-2,-1.8773492E-3,2.2175657E-2,-5.817908E-2,-2.996479E-2,-3.698654E-2,9.308781E-3,2.4598416E-2,-6.561726E-2,-2.7838597E-2,-7.732024E-2,-4.9179565E-2,8.406191E-2,-5.110618E-2,-1.28863035E-2,-6.54063E-2,7.5293304E-3],"split_indices":[7,7,7,7,1,1,7,6,6,6,6,3,7,6,7,1,6,1,1,7,7,1,7,1,7,6,6,1,3,4,0,1,7,1,0,7,1,7,6,1,1,1,1,2,4,6,1,4,6,1,0,0,0,1,2,6,2,3,2,0,2,0,0,0,0,0,0,0,0,0,0,0,0,0,0,0,0,0,0,0,0,0,0,0,0,0,0,0,0,0,0,0,0,0,0,0,0,0,0,0,0,0,0,0,0,0,0,0,0,0,0,0,0,0,0,0,0],"split_type":[0,0,0,0,0,0,0,0,0,0,0,0,0,0,0,0,0,0,0,0,0,0,0,0,0,0,0,0,0,0,0,0,0,0,0,0,0,0,0,0,0,0,0,0,0,0,0,0,0,0,0,0,0,0,0,0,0,0,0,0,0,0,0,0,0,0,0,0,0,0,0,0,0,0,0,0,0,0,0,0,0,0,0,0,0,0,0,0,0,0,0,0,0,0,0,0,0,0,0,0,0,0,0,0,0,0,0,0,0,0,0,0,0,0,0,0,0],"sum_hessian":[1.2552838E4,7.875806E3,4.6770317E3,4.12088E3,3.7549265E3,2.0655227E3,2.611509E3,1.9685195E3,2.1523604E3,2.6643738E3,1.0905526E3,7.8168036E2,1.2838423E3,7.346945E2,1.8768143E3,1.3148091E3,6.537104E2,1.0077555E3,1.1446049E3,1.2811718E3,1.383202E3,6.0278436E2,4.8776828E2,7.5639014E2,2.529021E1,7.118418E2,5.720004E2,6.6809424E2,6.660029E1,6.0416534E2,1.272649E3,4.361426E2,8.786665E2,4.8791113E2,1.6579927E2,5.340256E2,4.737299E2,5.9874527E1,1.0847303E3,4.632533E2,8.179185E2,8.232615E2,5.5994055E2,2.2880118E2,3.7398315E2,4.174445E2,7.032379E1,1.7692876E2,5.794614E2,1.5652565E1,9.637646E0,4.9417404E2,2.1766777E2,4.9233328E2,7.966717E1,6.009926E2,6.710166E1,4.3531265E0,6.2247166E1,4.9165683E2,1.125085E2,9.589241E0,4.2655334E2,4.6409695E2,4.1456955E2,1.7400172E0,4.861711E2,2.9514688E2,2.3887872E2,3.6020435E2,1.1352553E2,1.9155964E1,4.0718563E1,4.8742462E2,5.9730566E2,1.15330246E2,3.4792303E2,3.915802E2,4.2633832E2,6.850758E1,7.5475385E2,2.863762E2,2.7356436E2,1.2439101E2,1.0441017E2,2.3208955E2,1.4189362E2,2.627033E2,1.5474117E2,3.915038E1,3.1173418E1,1.7070587E2,6.2228827E0,2.3990584E2,3.3955557E2,5.3246193E0,1.0327946E1,2.0346682E0,7.6029773E0,2.0656559E1,4.735175E2,6.417085E1,1.5349692E2,1.2202401E2,3.7030927E2,2.4569185E1,5.509798E1,2.5484805E0,5.984441E2,5.881663E1,8.285027E0,1.2252892E0,3.1278372E0,3.3591698E1,2.8655466E1,1.1081231E2,1.6961888E0],"tree_param":{"num_deleted":"0","num_feature":"9","num_nodes":"117","size_leaf_vector":"1"}},{"base_weights":[-5.056717E-3,5.4181665E-1,-1.157674E0,9.3208706E-1,1.6165473E-1,-7.975325E-1,-1.456975E0,7.398966E-1,1.1315554E0,-1.18008286E-1,4.8987448E-1,-9.783864E-1,-4.1215745E-1,-1.337481E0,-7.720425E-2,9.558987E-1,4.6867073E-1,1.2765521E0,9.8386186E-1,1.7255303E-1,-3.547442E-1,6.5963864E-1,2.6737243E-1,-1.079249E0,-7.799592E-1,1.1314831E-2,-5.98282E-1,-1.3518816E0,-3.2913664E-1,3.1807756E-1,9.7744465E-1,1.352637E-1,5.6720716E-1,1.2104638E0,6.898817E-2,8.7977886E-1,1.112288E0,-2.2494052E-1,2.9873306E-1,-6.19355E-1,-2.0497699E-1,5.510941E-1,8.672595E-1,9.7869046E-2,5.750383E-1,-1.3463416E0,-1.0139279E0,-8.114013E-1,5.507525E-1,1.1014412E-1,-9.436965E-1,-4.2428732E-1,-7.777693E-1,-1.4441918E0,-1.296601E0,-9.6208364E-1,1.1070112E0,3.664423E-2,-2.8259067E-2,5.395477E-2,4.2686116E-2,-5.5203885E-3,1.8900318E-2,-2.2483122E-2,2.928775E-2,6.523206E-2,5.4663952E-2,2.5216226E-2,4.774322E-2,5.604138E-2,-2.7646614E-2,-2.344194E-3,-2.4700401E-2,5.6759417E-3,1.8765232E-2,-2.481014E-2,-5.1427614E-2,-2.0607727E-2,-4.912495E-3,-1.817811E-4,2.8608462E-2,4.8822638E-2,3.0438442E-2,-1.3763802E-2,8.753869E-3,3.135871E-2,-3.3247906E-3,-4.5877192E-2,-7.331707E-2,-5.2109834E-2,-2.2552151E-2,-3.492917E-2,-5.784599E-2,1.2429956E-3,8.2926884E-2,-1.9432466E-2,1.584364E-2,-8.844714E-2,-2.8247484E-3,-3.0357933E-2,2.3608266E-3,-3.641044E-2,-7.9688616E-2,-7.263371E-2,-4.4529825E-3,-1.1933272E-2,-6.568467E-2,1.8943058E-4,-7.42433E-2,7.355773E-2,9.023573E-3],"categories":[],"categories_nodes":[],"categories_segments":[],"categories_sizes":[],"default_left":[0,0,0,0,0,0,0,0,0,0,0,0,0,0,0,0,0,0,0,0,0,0,0,0,0,0,0,0,0,0,0,0,0,0,0,0,0,0,0,0,0,0,0,0,0,0,0,0,0,0,0,0,0,0,0,0,0,0,0,0,0,0,0,0,0,0,0,0,0,0,0,0,0,0,0,0,0,0,0,0,0,0,0,0,0,0,0,0,0,0,0,0,0,0,0,0,0,0,0,0,0,0,0,0,0,0,0,0,0,0,0],"id":7,"left_children":[1,3,5,7,9,11,13,15,17,19,21,23,25,27,-1,29,31,33,35,37,39,41,43,45,47,49,51,53,55,57,59,61,63,65,-1,67,69,71,73,75,77,79,81,83,85,87,89,91,93,95,97,99,101,103,105,107,109,-1,-1,-1,-1,-1,-1,-1,-1,-1,-1,-1,-1,-1,-1,-1,-1,-1,-1,-1,-1,-1,-1,-1,-1,-1,-1,-1,-1,-1,-1,-1,-1,-1,-1,-1,-1,-1,-1,-1,-1,-1,-1,-1,-1,-1,-1,-1,-1,-1,-1,-1,-1,-1,-1],"loss_changes":[7.863856E3,1.2551985E3,4.3156396E2,1.5920996E2,3.9359314E2,1.26742065E2,2.0743652E1,1.2428674E2,4.257544E1,1.5934882E2,7.433493E1,2.399292E1,4.6068436E1,1.3079224E1,0E0,1.5963867E1,3.09973E1,5.3519287E0,1.2633118E1,5.2245544E1,5.0455276E1,2.4722534E1,4.455239E1,1.2942749E1,1.8094604E1,1.7037508E1,1.2348938E1,2.8116455E0,1.4187126E1,1.5135436E1,1.3479614E1,1.29876175E1,1.4027466E1,5.5897217E0,0E0,1.5509796E1,7.048279E0,1.2013504E1,1.1162529E1,2.2711807E1,1.8014511E1,8.61911E0,1.0192291E1,1.5972422E1,1.0197899E1,6.7897034E0,1.0079346E1,1.5269592E1,5.9777317E0,1.698071E1,1.2295452E1,1.7993423E1,6.872673E0,3.7216797E0,1.0244751E1,5.335144E0,1.381288E0,0E0,0E0,0E0,0E0,0E0,0E0,0E0,0E0,0E0,0E0,0E0,0E0,0E0,0E0,0E0,0E0,0E0,0E0,0E0,0E0,0E0,0E0,0E0,0E0,0E0,0E0,0E0,0E0,0E0,0E0,0E0,0E0,0E0,0E0,0E0,0E0,0E0,0E0,0E0,0E0,0E0,0E0,0E0,0E0,0E0,0E0,0E0,0E0,0E0,0E0,0E0,0E0,0E0,0E0],"parents":[2147483647,0,0,1,1,2,2,3,3,4,4,5,5,6,6,7,7,8,8,9,9,10,10,11,11,12,12,13,13,15,15,16,16,17,17,18,18,19,19,20,20,21,21,22,22,23,23,24,24,25,25,26,26,27,27,28,28,29,29,30,30,31,31,32,32,33,33,35,35,36,36,37,37,38,38,39,39,40,40,41,41,42,42,43,43,44,44,45,45,46,46,47,47,48,48,49,49,50,50,51,51,52,52,53,53,54,54,55,55,56,56],"right_children":[2,4,6,8,10,12,14,16,18,20,22,24,26,28,-1,30,32,34,36,38,40,42,44,46,48,50,52,54,56,58,60,62,64,66,-1,68,70,72,74,76,78,80,82,84,86,88,90,92,94,96,98,100,102,104,106,108,110,-1,-1,-1,-1,-1,-1,-1,-1,-1,-1,-1,-1,-1,-1,-1,-1,-1,-1,-1,-1,-1,-1,-1,-1,-1,-1,-1,-1,-1,-1,-1,-1,-1,-1,-1,-1,-1,-1,-1,-1,-1,-1,-1,-1,-1,-1,-1,-1,-1,-1,-1,-1,-1,-1],"split_conditions":[1.0689609E0,5.701178E-1,1.5574329E0,3.4217918E-1,3.482186E-1,3.4992668E-1,2.1150005E0,3.5870105E-1,3.5870105E-1,7.6613325E-1,8.1237686E-1,3.067364E-1,1.1605296E0,4.4734484E-1,-7.720425E-2,1.8881144E-1,2.5350267E-1,4.1112196E-1,4.0273637E-1,2.6063985E-1,2.7586913E-1,4.2212424E-1,4.1819483E-1,2.2186503E-1,8E0,2.0246863E4,1.3055525E0,2.700858E-1,7.3057805E4,1.5896635E-1,1.9241326E-1,2.4161883E-1,1.4427693E4,1.9241326E-1,6.898817E-2,2E0,1.1944522E5,6.904566E-1,2.9199168E-1,9.9396986E-1,3.3712805E4,1.5043956E-1,4.1293066E4,5.489321E3,7.6285336E4,4.478337E3,1.5276691E0,1.387519E0,4.431086E4,3.7848052E-1,3E0,1.2661601E0,9.033464E4,1.1944522E5,2.716158E-1,4.5416376E-1,7.942009E4,3.664423E-2,-2.8259067E-2,5.395477E-2,4.2686116E-2,-5.5203885E-3,1.8900318E-2,-2.2483122E-2,2.928775E-2,6.523206E-2,5.4663952E-2,2.5216226E-2,4.774322E-2,5.604138E-2,-2.7646614E-2,-2.344194E-3,-2.4700401E-2,5.6759417E-3,1.8765232E-2,-2.481014E-2,-5.1427614E-2,-2.0607727E-2,-4.912495E-3,-1.817811E-4,2.8608462E-2,4.8822638E-2,3.0438442E-2,-1.3763802E-2,8.753869E-3,3.135871E-2,-3.3247906E-3,-4.5877192E-2,-7.331707E-2,-5.2109834E-2,-2.2552151E-2,-3.492917E-2,-5.784599E-2,1.2429956E-3,8.2926884E-2,-1.9432466E-2,1.584364E-2,-8.844714E-2,-2.8247484E-3,-3.0357933E-2,2.3608266E-3,-3.641044E-2,-7.9688616E-2,-7.263371E-2,-4.4529825E-3,-1.1933272E-2,-6.568467E-2,1.8943058E-4,-7.42433E-2,7.355773E-2,9.023573E-3],"split_indices":[7,7,7,8,8,8,7,7,7,7,7,8,7,8,0,8,8,8,8,8,8,8,8,8,4,3,7,8,0,7,7,5,0,7,0,4,2,7,8,7,0,5,2,3,0,3,7,7,2,8,4,7,0,2,8,8,0,0,0,0,0,0,0,0,0,0,0,0,0,0,0,0,0,0,0,0,0,0,0,0,0,0,0,0,0,0,0,0,0,0,0,0,0,0,0,0,0,0,0,0,0,0,0,0,0,0,0,0,0,0,0],"split_type":[0,0,0,0,0,0,0,0,0,0,0,0,0,0,0,0,0,0,0,0,0,0,0,0,0,0,0,0,0,0,0,0,0,0,0,0,0,0,0,0,0,0,0,0,0,0,0,0,0,0,0,0,0,0,0,0,0,0,0,0,0,0,0,0,0,0,0,0,0,0,0,0,0,0,0,0,0,0,0,0,0,0,0,0,0,0,0,0,0,0,0,0,0,0,0,0,0,0,0,0,0,0,0,0,0,0,0,0,0,0,0],"sum_hessian":[1.2473668E4,8.460168E3,4.0135005E3,4.1738667E3,4.2863013E3,1.8232701E3,2.1902305E3,2.1281116E3,2.0457551E3,2.314688E3,1.9716133E3,1.2398691E3,5.8340106E2,9.303566E2,1.2598738E3,1.1832537E3,9.448579E2,1.028446E3,1.017309E3,1.0393264E3,1.2753616E3,1.1172281E3,8.543851E2,8.1908203E2,4.2078708E2,1.7841312E2,4.049879E2,9.1692096E2,1.3435654E1,3.917998E1,1.1440736E3,2.1608554E2,7.2877234E2,6.347387E2,3.9370734E2,5.6624554E2,4.5106348E2,2.5023885E2,7.890875E2,4.5981625E2,8.1554535E2,7.3606604E2,3.8116214E2,5.517344E2,3.0265073E2,1.5710039E2,6.619816E2,4.114554E2,9.331635E0,1.6248322E2,1.59299E1,2.0734851E2,1.9763939E2,3.3402542E2,5.828955E2,9.554733E0,3.8809206E0,2.6775558E1,1.2404424E1,6.238194E2,5.202543E2,1.07665825E2,1.0841971E2,1.2638437E1,7.161339E2,3.46298E2,2.884407E2,9.565467E1,4.7059088E2,4.4908737E2,1.976109E0,1.5129376E2,9.894508E1,2.3153183E2,5.575557E2,3.551444E2,1.0467184E2,2.763112E2,5.392342E2,2.6971142E1,7.090949E2,2.6601355E2,1.15148575E2,9.4149216E1,4.5758517E2,2.7992435E2,2.272637E1,3.6242054E1,1.2085834E2,6.295152E2,3.246641E1,3.1245514E2,9.900028E1,7.0210247E0,2.3106108E0,4.7352192E1,1.1513103E2,7.738216E0,8.191684E0,1.4919571E2,5.8152813E1,1.88107E2,9.532397E0,3.3187607E2,2.1493518E0,9.50559E0,5.7338995E2,3.7040424E0,5.850691E0,2.364029E0,1.5168917E0],"tree_param":{"num_deleted":"0","num_feature":"9","num_nodes":"111","size_leaf_vector":"1"}},{"base_weights":[-4.8769237E-3,5.8108366E-1,-9.7131413E-1,9.237081E-1,2.5225928E-1,-5.448524E-1,-1.372473E0,7.291922E-1,1.1255608E0,7.59637E-3,5.327452E-1,-8.565229E-1,-2.4716115E-1,-1.1353216E0,-1.4507304E0,8.819754E-1,3.7245065E-1,1.2952471E0,1.0342953E0,1.7922133E-1,-2.2936933E-1,6.396452E-1,2.759914E-1,-9.910628E-1,-7.0341706E-1,-3.7460387E-2,-5.649899E-1,-1.2241081E0,-8.2337135E-1,-1.3455284E0,-7.50164E-2,9.957349E-1,7.242102E-1,2.3356651E-1,6.004241E-1,1.2483467E0,1.406979E0,8.995097E-1,1.1902409E0,-1.4882435E-1,2.9435354E-1,-5.351648E-1,-1.0799962E-1,4.872818E-1,7.893129E-1,7.1837544E-3,4.125418E-1,-9.303067E-1,-1.2293667E0,-2.6849616E-1,-8.137811E-1,-1.9050704E-1,4.6949992E-1,-6.042225E-1,3.2338566E-1,-1.2341825E0,1.00254625E-1,-4.555044E-1,-9.6831435E-1,-1.381773E0,-1.18351E0,4.712216E-2,5.6477766E-2,2.5765816E-2,4.5491707E-2,-1.8359112E-2,1.5828459E-2,-1.3092271E-2,3.20666E-2,6.44791E-2,5.5193167E-2,4.0732946E-2,7.124152E-2,1.5065302E-2,4.6012513E-2,-2.4261107E-3,5.9785604E-2,-3.83774E-3,-4.8643608E-2,1.8556518E-2,6.0586995E-3,5.3231874E-3,-3.1937983E-2,-5.7448435E-4,-1.4231212E-2,7.897838E-3,2.7768174E-2,3.62987E-2,5.2452505E-2,-8.303631E-3,2.8491754E-2,-3.8168363E-3,2.3469435E-2,-4.0207632E-2,-5.290633E-2,-6.584009E-2,8.830185E-3,-5.0064582E-2,1.2199059E-3,-4.5223106E-2,-2.9221604E-2,-5.0172877E-2,-6.9359997E-3,3.2170665E-2,-5.4233125E-4,-6.392303E-2,-2.764278E-2,-1.5815167E-2,6.383502E-2,-5.5917528E-2,-6.733669E-2,-4.9650528E-2,5.458511E-2,-3.809413E-2,4.429334E-2,-6.818562E-2,-3.59254E-2,-7.357826E-2,-6.593474E-2,-6.025324E-2,7.985619E-3],"categories":[],"categories_nodes":[],"categories_segments":[],"categories_sizes":[],"default_left":[0,0,0,0,0,0,0,0,0,0,0,0,0,0,0,0,0,0,0,0,0,0,0,0,0,0,0,0,0,0,0,0,0,0,0,0,0,0,0,0,0,0,0,0,0,0,0,0,0,0,0,0,0,0,0,0,0,0,0,0,0,0,0,0,0,0,0,0,0,0,0,0,0,0,0,0,0,0,0,0,0,0,0,0,0,0,0,0,0,0,0,0,0,0,0,0,0,0,0,0,0,0,0,0,0,0,0,0,0,0,0,0,0,0,0,0,0,0,0,0,0],"id":8,"left_children":[1,3,5,7,9,11,13,15,17,19,21,23,25,27,29,31,33,35,37,39,41,43,45,47,49,51,53,55,57,59,-1,61,63,65,67,69,71,73,75,77,79,81,83,85,87,89,91,93,95,97,99,101,103,105,107,109,111,113,115,117,119,-1,-1,-1,-1,-1,-1,-1,-1,-1,-1,-1,-1,-1,-1,-1,-1,-1,-1,-1,-1,-1,-1,-1,-1,-1,-1,-1,-1,-1,-1,-1,-1,-1,-1,-1,-1,-1,-1,-1,-1,-1,-1,-1,-1,-1,-1,-1,-1,-1,-1,-1,-1,-1,-1,-1,-1,-1,-1,-1,-1],"loss_changes":[7.004738E3,8.673345E2,7.980039E2,1.4723242E2,2.6974347E2,2.0991443E2,4.2990234E1,1.0448938E2,2.7289307E1,8.546565E1,5.008722E1,2.2084839E1,7.7275154E1,1.5647766E1,7.397949E0,2.3431152E1,1.8172562E1,1.6109619E0,2.4300781E1,4.607423E1,3.270387E1,2.9082886E1,1.982151E1,7.3441772E0,2.47771E1,5.4386326E1,1.626091E1,6.342102E0,6.8258667E0,1.8173828E0,0E0,4.4926147E0,2.1535645E1,1.8119965E1,7.86911E0,1.3257446E0,7.649231E-1,7.8065186E0,3.829773E0,1.8768192E1,1.1954399E1,1.6722168E1,1.0789757E1,1.4327927E1,9.936157E0,1.79296E1,9.988873E0,6.748047E0,1.4491135E1,2.2966352E1,8.099457E0,2.2520918E1,1.358736E1,1.4594315E1,1.2689884E1,4.5251465E0,5.900428E0,1.7282026E1,8.589272E0,7.4694824E-1,3.5062103E0,0E0,0E0,0E0,0E0,0E0,0E0,0E0,0E0,0E0,0E0,0E0,0E0,0E0,0E0,0E0,0E0,0E0,0E0,0E0,0E0,0E0,0E0,0E0,0E0,0E0,0E0,0E0,0E0,0E0,0E0,0E0,0E0,0E0,0E0,0E0,0E0,0E0,0E0,0E0,0E0,0E0,0E0,0E0,0E0,0E0,0E0,0E0,0E0,0E0,0E0,0E0,0E0,0E0,0E0,0E0,0E0,0E0,0E0,0E0,0E0],"parents":[2147483647,0,0,1,1,2,2,3,3,4,4,5,5,6,6,7,7,8,8,9,9,10,10,11,11,12,12,13,13,14,14,15,15,16,16,17,17,18,18,19,19,20,20,21,21,22,22,23,23,24,24,25,25,26,26,27,27,28,28,29,29,31,31,32,32,33,33,34,34,35,35,36,36,37,37,38,38,39,39,40,40,41,41,42,42,43,43,44,44,45,45,46,46,47,47,48,48,49,49,50,50,51,51,52,52,53,53,54,54,55,55,56,56,57,57,58,58,59,59,60,60],"right_children":[2,4,6,8,10,12,14,16,18,20,22,24,26,28,30,32,34,36,38,40,42,44,46,48,50,52,54,56,58,60,-1,62,64,66,68,70,72,74,76,78,80,82,84,86,88,90,92,94,96,98,100,102,104,106,108,110,112,114,116,118,120,-1,-1,-1,-1,-1,-1,-1,-1,-1,-1,-1,-1,-1,-1,-1,-1,-1,-1,-1,-1,-1,-1,-1,-1,-1,-1,-1,-1,-1,-1,-1,-1,-1,-1,-1,-1,-1,-1,-1,-1,-1,-1,-1,-1,-1,-1,-1,-1,-1,-1,-1,-1,-1,-1,-1,-1,-1,-1,-1,-1],"split_conditions":[9.6372277E-1,5.337539E-1,1.4491059E0,3.4217918E-1,3.482186E-1,3.211618E-1,1.713141E0,4.0327558E-1,2.3964497E-1,7.6613325E-1,8.1824505E-1,2.7586913E-1,1.1781422E0,3.563095E-1,2.1150005E0,2.3964497E-1,4E0,4.2212424E-1,4.0273637E-1,2.6235414E-1,2.6578057E-1,4.0127227E-1,6.782265E-1,2.346017E-1,1.0342009E0,4.2212424E-1,3.2374084E-1,9E0,3.7376016E-1,5E0,-7.50164E-2,3.1451362E-1,2.8976607E-1,3.7877285E-1,4.1035295E-1,7.69378E-1,1E0,1.4449868E-1,5.15707E-1,6.990678E4,6.0866064E-1,3.0744755E-1,8.8823456E-1,2E0,4.8004937E-1,5E0,3.6173648E-1,1.2037625E0,7E0,2.6664654E4,4.7058203E4,1.3527267E-1,5.0571836E4,5.716668E-1,5.9447043E4,1.5694346E0,3.222548E4,8.118588E-1,3.9565027E-1,1.17324695E-1,1.1944522E5,4.712216E-2,5.6477766E-2,2.5765816E-2,4.5491707E-2,-1.8359112E-2,1.5828459E-2,-1.3092271E-2,3.20666E-2,6.44791E-2,5.5193167E-2,4.0732946E-2,7.124152E-2,1.5065302E-2,4.6012513E-2,-2.4261107E-3,5.9785604E-2,-3.83774E-3,-4.8643608E-2,1.8556518E-2,6.0586995E-3,5.3231874E-3,-3.1937983E-2,-5.7448435E-4,-1.4231212E-2,7.897838E-3,2.7768174E-2,3.62987E-2,5.2452505E-2,-8.303631E-3,2.8491754E-2,-3.8168363E-3,2.3469435E-2,-4.0207632E-2,-5.290633E-2,-6.584009E-2,8.830185E-3,-5.0064582E-2,1.2199059E-3,-4.5223106E-2,-2.9221604E-2,-5.0172877E-2,-6.9359997E-3,3.2170665E-2,-5.4233125E-4,-6.392303E-2,-2.764278E-2,-1.5815167E-2,6.383502E-2,-5.5917528E-2,-6.733669E-2,-4.9650528E-2,5.458511E-2,-3.809413E-2,4.429334E-2,-6.818562E-2,-3.59254E-2,-7.357826E-2,-6.593474E-2,-6.025324E-2,7.985619E-3],"split_indices":[7,7,7,8,8,8,7,7,7,7,7,8,7,8,7,7,4,8,8,8,8,8,1,5,7,8,5,4,8,4,0,8,8,1,7,1,4,5,1,2,1,1,7,4,8,4,8,7,4,2,2,5,0,1,0,7,2,1,8,5,2,0,0,0,0,0,0,0,0,0,0,0,0,0,0,0,0,0,0,0,0,0,0,0,0,0,0,0,0,0,0,0,0,0,0,0,0,0,0,0,0,0,0,0,0,0,0,0,0,0,0,0,0,0,0,0,0,0,0,0,0],"split_type":[0,0,0,0,0,0,0,0,0,0,0,0,0,0,0,0,0,0,0,0,0,0,0,0,0,0,0,0,0,0,0,0,0,0,0,0,0,0,0,0,0,0,0,0,0,0,0,0,0,0,0,0,0,0,0,0,0,0,0,0,0,0,0,0,0,0,0,0,0,0,0,0,0,0,0,0,0,0,0,0,0,0,0,0,0,0,0,0,0,0,0,0,0,0,0,0,0,0,0,0,0,0,0,0,0,0,0,0,0,0,0,0,0,0,0,0,0,0,0,0,0],"sum_hessian":[1.2367438E4,7.699533E3,4.6679053E3,3.769757E3,3.929776E3,2.2637395E3,2.4041655E3,1.9221166E3,1.8476405E3,2.0994712E3,1.8303048E3,1.1049865E3,1.158753E3,6.003554E2,1.8038102E3,1.3447308E3,5.7738574E2,6.4158124E2,1.2060593E3,1.2177478E3,8.817233E2,1.2912137E3,5.390911E2,5.852405E2,5.1974603E2,6.988051E2,4.599479E2,4.6506558E2,1.3528981E2,5.8695013E2,1.2168601E3,7.7824884E2,5.66482E2,3.6005838E2,2.1732733E2,4.6046814E2,1.8111308E2,6.505496E2,5.555097E2,3.1628E2,9.0146783E2,2.4955383E2,6.321695E2,6.419535E2,6.492602E2,1.8195477E2,3.5713632E2,4.702523E2,1.1498816E2,1.0588977E2,4.1385626E2,5.3724115E2,1.6156393E2,4.4080106E2,1.9146866E1,4.616221E2,3.4434814E0,3.9409832E1,9.587998E1,4.7349704E2,1.1345308E2,5.623467E2,2.1590218E2,2.6831122E2,2.981708E2,4.3292973E1,3.167654E2,9.598836E0,2.077285E2,3.520643E2,1.0840386E2,6.663104E0,1.7444997E2,2.231995E1,6.282297E2,2.4081013E0,5.5310156E2,2.9184866E2,2.4431349E1,6.2378033E2,2.776875E2,3.4687073E1,2.1486676E2,4.0948615E2,2.2268336E2,1.10545E2,5.314085E2,5.2502405E2,1.2423616E2,1.3965565E2,4.229912E1,3.71663E1,3.1997003E2,2.4033797E2,2.2991432E2,1.083156E2,6.67256E0,2.9547054E1,7.634271E1,2.9447986E2,1.1937638E2,3.1073544E1,5.0616763E2,1.1836826E2,4.319568E1,2.9513947E1,4.112871E2,1.1858102E1,7.2887645E0,2.3288504E2,2.2873705E2,1.636901E0,1.8065805E0,3.2433754E1,6.9760756E0,3.539579E1,6.048419E1,1.8616309E2,2.8733395E2,1.11762474E2,1.6906085E0],"tree_param":{"num_deleted":"0","num_feature":"9","num_nodes":"121","size_leaf_vector":"1"}},{"base_weights":[8.4970435E-3,5.0150496E-1,-1.0508008E0,8.636299E-1,1.5281281E-1,-6.3577944E-1,-1.3275446E0,1.0469823E0,7.0488185E-1,-1.5000567E-1,3.000222E-1,-9.283878E-1,-3.8990024E-1,-1.1862781E0,-7.316817E-2,9.1401964E-1,1.169184E0,4.95931E-1,9.010858E-1,1.1480756E-1,-4.0524384E-1,4.862654E-1,8.929447E-2,-9.5978284E-1,-2.18579E-1,-1.7983411E-1,-5.5537325E-1,-1.2090796E0,-4.2537785E-1,4.904538E-1,9.5410824E-1,9.825205E-1,1.2390896E0,3.2096538E-1,7.5482434E-1,3.2538074E-1,9.3204236E-1,-1.534727E-1,3.6728916E-1,-5.4994005E-1,-4.707592E-2,3.608903E-1,7.258297E-1,-6.543236E-2,4.0171936E-1,-1.1317095E0,-8.3793455E-1,-1.1905388E0,1.4944506E-1,-5.489981E-1,-8.960379E-2,-7.174282E-1,-3.5579094E-1,-1.0656484E0,-1.2552661E0,-7.735205E-1,1.6450487E-1,2.659568E-2,-6.0698904E-2,5.261761E-2,4.091268E-2,4.4807743E-2,6.5257214E-2,5.8510374E-2,6.702549E-2,2.3373906E-2,7.83692E-3,-7.003529E-2,3.827087E-2,2.441001E-2,-1.9398045E-2,3.935326E-2,5.1861234E-2,9.879646E-3,-1.4552662E-2,-3.0271558E-3,2.3553526E-2,-2.9217953E-2,3.1768166E-2,-2.6583994E-2,6.2410985E-3,1.3469209E-2,3.0164842E-2,3.356955E-2,5.479246E-2,-1.9804794E-2,6.8422295E-3,1.9552454E-4,2.4531346E-2,-3.5717916E-2,-5.995033E-2,-2.888985E-2,-4.959E-2,3.1517636E-2,-7.57209E-2,4.612895E-2,-2.4408253E-2,-4.8120614E-2,-2.4876765E-3,5.19334E-3,-1.7693518E-2,-4.019128E-2,-1.7056566E-2,-2.1687973E-2,1.599333E-2,-1.1913261E-3,-5.4419216E-2,-6.411442E-2,-5.0002333E-2,5.742683E-3,-5.8381706E-2,3.3975415E-2,-6.532537E-2],"categories":[],"categories_nodes":[],"categories_segments":[],"categories_sizes":[],"default_left":[0,0,0,0,0,0,0,0,0,0,0,0,0,0,0,0,0,0,0,0,0,0,0,0,0,0,0,0,0,0,0,0,0,0,0,0,0,0,0,0,0,0,0,0,0,0,0,0,0,0,0,0,0,0,0,0,0,0,0,0,0,0,0,0,0,0,0,0,0,0,0,0,0,0,0,0,0,0,0,0,0,0,0,0,0,0,0,0,0,0,0,0,0,0,0,0,0,0,0,0,0,0,0,0,0,0,0,0,0,0,0,0,0],"id":9,"left_children":[1,3,5,7,9,11,13,15,17,19,21,23,25,27,-1,29,31,33,35,37,39,41,43,45,47,49,51,53,55,57,59,61,63,65,67,69,71,73,75,77,79,81,83,85,87,89,91,93,95,97,99,101,103,105,107,109,111,-1,-1,-1,-1,-1,-1,-1,-1,-1,-1,-1,-1,-1,-1,-1,-1,-1,-1,-1,-1,-1,-1,-1,-1,-1,-1,-1,-1,-1,-1,-1,-1,-1,-1,-1,-1,-1,-1,-1,-1,-1,-1,-1,-1,-1,-1,-1,-1,-1,-1,-1,-1,-1,-1,-1,-1],"loss_changes":[6.4143223E3,1.0581943E3,4.471831E2,1.1892969E2,1.9044237E2,1.1205121E2,4.3148438E1,2.9896484E1,9.0015625E1,9.4524734E1,1.1276425E2,1.5672607E1,2.9472336E1,1.9471924E1,0E0,1.5107422E1,1.169397E1,4.8261993E1,1.9955994E1,4.6578243E1,3.6873436E1,4.555948E1,6.527375E1,1.3343628E1,1.1439549E1,1.2486681E1,1.5120956E1,6.067993E0,7.3270493E0,6.395567E0,1.0309021E1,6.476898E0,3.4337158E0,1.5342987E1,1.0915375E1,7.105087E0,1.5625488E1,1.617485E1,1.5751785E1,2.1056396E1,1.7223732E1,2.209584E1,9.801788E0,6.0488895E1,1.5814545E1,7.010956E0,1.5562073E1,6.119809E0,1.2145681E1,1.5168133E1,1.5560135E1,8.223709E0,1.1466007E1,6.5806274E0,4.510742E0,7.9145927E0,1.1369995E1,0E0,0E0,0E0,0E0,0E0,0E0,0E0,0E0,0E0,0E0,0E0,0E0,0E0,0E0,0E0,0E0,0E0,0E0,0E0,0E0,0E0,0E0,0E0,0E0,0E0,0E0,0E0,0E0,0E0,0E0,0E0,0E0,0E0,0E0,0E0,0E0,0E0,0E0,0E0,0E0,0E0,0E0,0E0,0E0,0E0,0E0,0E0,0E0,0E0,0E0,0E0,0E0,0E0,0E0,0E0,0E0],"parents":[2147483647,0,0,1,1,2,2,3,3,4,4,5,5,6,6,7,7,8,8,9,9,10,10,11,11,12,12,13,13,15,15,16,16,17,17,18,18,19,19,20,20,21,21,22,22,23,23,24,24,25,25,26,26,27,27,28,28,29,29,30,30,31,31,32,32,33,33,34,34,35,35,36,36,37,37,38,38,39,39,40,40,41,41,42,42,43,43,44,44,45,45,46,46,47,47,48,48,49,49,50,50,51,51,52,52,53,53,54,54,55,55,56,56],"right_children":[2,4,6,8,10,12,14,16,18,20,22,24,26,28,-1,30,32,34,36,38,40,42,44,46,48,50,52,54,56,58,60,62,64,66,68,70,72,74,76,78,80,82,84,86,88,90,92,94,96,98,100,102,104,106,108,110,112,-1,-1,-1,-1,-1,-1,-1,-1,-1,-1,-1,-1,-1,-1,-1,-1,-1,-1,-1,-1,-1,-1,-1,-1,-1,-1,-1,-1,-1,-1,-1,-1,-1,-1,-1,-1,-1,-1,-1,-1,-1,-1,-1,-1,-1,-1,-1,-1,-1,-1,-1,-1,-1,-1,-1,-1],"split_conditions":[1.0689609E0,5.701178E-1,1.4491059E0,3.194193E-1,5.507531E-1,5.986288E-1,2.1150005E0,1.3726449E-1,1.5508017E-1,7.783731E-1,8.069028E-1,3.20338E-1,1.2037625E0,2.245021E-1,-7.316817E-2,4.1782779E-1,5.203955E-1,6.4926404E-1,3.7877285E-1,1.5084103E-1,1.9084488E-1,1.8703659E-1,7.392885E-1,4.7887367E-1,2.6355184E4,2.1896314E4,1.9917622E-1,1.5694346E0,7.0204806E-1,6.084928E3,1.5896635E-1,2.9425746E-1,2.2097753E-1,4.606436E-1,2.760167E-2,4.8255402E4,2.1177907E-1,2.2750176E4,3.9105293E-1,1.1851658E5,4.142788E-1,7.547882E-1,3.2649764E-1,1.15195535E-1,5.0922407E3,4.478337E3,1.1781422E0,3.214957E-1,4.063077E4,7.121715E-1,4.8663594E4,1.3327914E-1,8.590654E-1,6.0614217E-2,8.044832E-1,4.4402373E-1,7.883461E-1,2.659568E-2,-6.0698904E-2,5.261761E-2,4.091268E-2,4.4807743E-2,6.5257214E-2,5.8510374E-2,6.702549E-2,2.3373906E-2,7.83692E-3,-7.003529E-2,3.827087E-2,2.441001E-2,-1.9398045E-2,3.935326E-2,5.1861234E-2,9.879646E-3,-1.4552662E-2,-3.0271558E-3,2.3553526E-2,-2.9217953E-2,3.1768166E-2,-2.6583994E-2,6.2410985E-3,1.3469209E-2,3.0164842E-2,3.356955E-2,5.479246E-2,-1.9804794E-2,6.8422295E-3,1.9552454E-4,2.4531346E-2,-3.5717916E-2,-5.995033E-2,-2.888985E-2,-4.959E-2,3.1517636E-2,-7.57209E-2,4.612895E-2,-2.4408253E-2,-4.8120614E-2,-2.4876765E-3,5.19334E-3,-1.7693518E-2,-4.019128E-2,-1.7056566E-2,-2.1687973E-2,1.599333E-2,-1.1913261E-3,-5.4419216E-2,-6.411442E-2,-5.0002333E-2,5.742683E-3,-5.8381706E-2,3.3975415E-2,-6.532537E-2],"split_indices":[7,7,7,7,1,1,7,6,6,7,7,5,7,6,0,1,1,1,1,6,6,6,1,1,2,2,5,7,1,3,7,6,6,7,6,2,6,2,1,0,1,1,6,6,3,3,7,5,0,1,0,6,1,5,1,1,1,0,0,0,0,0,0,0,0,0,0,0,0,0,0,0,0,0,0,0,0,0,0,0,0,0,0,0,0,0,0,0,0,0,0,0,0,0,0,0,0,0,0,0,0,0,0,0,0,0,0,0,0,0,0,0,0],"split_type":[0,0,0,0,0,0,0,0,0,0,0,0,0,0,0,0,0,0,0,0,0,0,0,0,0,0,0,0,0,0,0,0,0,0,0,0,0,0,0,0,0,0,0,0,0,0,0,0,0,0,0,0,0,0,0,0,0,0,0,0,0,0,0,0,0,0,0,0,0,0,0,0,0,0,0,0,0,0,0,0,0,0,0,0,0,0,0,0,0,0,0,0,0,0,0,0,0,0,0,0,0,0,0,0,0,0,0,0,0,0,0,0,0],"sum_hessian":[1.2280266E4,8.380447E3,3.8998184E3,4.110314E3,4.270133E3,1.5614592E3,2.3383591E3,1.9047501E3,2.205564E3,1.3968044E3,2.8733286E3,7.117115E2,8.4974774E2,1.1509637E3,1.1873953E3,9.1627167E2,9.8847845E2,1.0697949E3,1.1357689E3,6.858134E2,7.10991E2,1.5245814E3,1.3487471E3,6.8122845E2,3.0483046E1,3.7534204E2,4.744057E2,1.1169049E3,3.4058838E1,8.036716E1,8.3590454E2,2.7342563E2,7.1505286E2,6.39707E2,4.3008792E2,5.8543087E1,1.0772258E3,3.3269388E2,3.5311957E2,5.0602615E2,2.0496484E2,1.00245624E3,5.221252E2,9.025529E2,4.4619418E2,2.7911386E2,4.021146E2,7.758288E0,2.2724758E1,7.272286E1,3.0261917E2,2.603856E2,2.1402011E2,2.7791553E2,8.389893E2,2.1222326E1,1.2836511E1,7.9130264E1,1.2368947E0,4.8118616E2,3.5471835E2,2.1866673E2,5.4758892E1,4.3330264E2,2.817502E2,3.371114E2,3.025956E2,1.4615054E0,4.286264E2,4.7920826E1,1.0622261E1,4.564981E2,6.207278E2,9.354864E1,2.3914523E2,6.901716E1,2.8410242E2,4.9223944E2,1.3786721E1,5.3119793E1,1.5184506E2,7.2927374E2,2.7318253E2,4.5761362E2,6.451155E1,3.4219925E2,5.6035364E2,8.169612E1,3.6449805E2,4.036992E1,2.3874393E2,1.5121434E2,2.5090027E2,1.0286765E0,6.7296114E0,1.0068848E1,1.26559105E1,3.9273525E1,3.3449337E1,1.7506232E2,1.2755686E2,2.1084062E2,4.9544964E1,1.9219904E2,2.1821074E1,5.979197E0,2.7193634E2,7.550241E2,8.396523E1,6.7394533E0,1.4482873E1,9.906351E0,2.9301596E0],"tree_param":{"num_deleted":"0","num_feature":"9","num_nodes":"113","size_leaf_vector":"1"}},{"base_weights":[2.7396056E-4,4.9109307E-1,-9.8293716E-1,8.279124E-1,1.5201044E-1,-6.246943E-1,-1.3380102E0,6.4653724E-1,1.014575E0,-6.277905E-2,4.7557232E-1,-9.219776E-1,-3.1457236E-1,-1.2124695E0,-7.162773E-2,8.754359E-1,4.0859678E-1,1.1238457E0,8.4127957E-1,1.7510739E-1,-2.7101493E-1,6.0081553E-1,2.8940246E-1,-7.7536285E-1,-1.0115044E0,-2.391854E-2,-5.389299E-1,-1.2230836E0,-4.9094674E-1,7.54948E-1,9.9367625E-1,7.6263055E-2,5.1038283E-1,1.237835E0,1.0382552E0,7.259208E-1,9.809878E-1,-8.864956E-2,3.5721517E-1,-4.4636145E-1,-1.13793455E-1,5.50299E-1,9.877737E-1,-9.8228954E-2,3.5458186E-1,-9.066699E-1,-2.621403E-1,-1.063155E0,-7.0499533E-1,-2.356272E-1,4.214963E-1,-7.0108634E-1,-3.3669755E-1,-1.2513175E0,-9.5525694E-1,5.950707E-1,-1.1422726E0,4.230321E-2,1.832392E-2,5.0224986E-2,1.893579E-2,6.614209E-3,-7.03914E-2,3.4845978E-2,2.2229917E-2,4.9927574E-2,6.3114904E-2,4.6327066E-2,5.8953978E-2,3.992873E-2,2.3691474E-2,2.1057626E-2,5.048699E-2,-2.7252052E-2,-9.729177E-4,2.1148901E-2,7.3250434E-3,-1.9406347E-2,-5.358184E-2,-3.7229818E-3,-6.260989E-2,3.2033086E-2,1.8737704E-2,-2.2504034E-3,5.0568324E-2,1.8454561E-2,-2.61381E-2,2.5270558E-3,2.0742591E-2,-4.8866563E-2,-2.6404494E-2,-5.6641128E-2,-1.5175856E-3,-3.8458068E-2,-5.5078056E-2,-4.470841E-2,1.5188727E-2,-2.931646E-2,-5.2357707E-3,3.252634E-2,4.667435E-3,-2.1675285E-2,-4.3002136E-2,-7.4106574E-2,-1.5272351E-2,-2.3101144E-3,-6.27254E-2,-1.4276219E-2,-5.771599E-2,-1.888112E-2,6.8828784E-2,3.517909E-2,-7.247787E-2],"categories":[],"categories_nodes":[],"categories_segments":[],"categories_sizes":[],"default_left":[0,0,0,0,0,0,0,0,0,0,0,0,0,0,0,0,0,0,0,0,0,0,0,0,0,0,0,0,0,0,0,0,0,0,0,0,0,0,0,0,0,0,0,0,0,0,0,0,0,0,0,0,0,0,0,0,0,0,0,0,0,0,0,0,0,0,0,0,0,0,0,0,0,0,0,0,0,0,0,0,0,0,0,0,0,0,0,0,0,0,0,0,0,0,0,0,0,0,0,0,0,0,0,0,0,0,0,0,0,0,0,0,0],"id":10,"left_children":[1,3,5,7,9,11,13,15,17,19,21,23,25,27,-1,29,31,33,35,37,39,41,43,45,47,49,51,53,55,57,59,61,63,65,67,69,71,73,75,77,79,81,83,85,87,89,91,93,95,97,99,101,103,105,107,109,111,-1,-1,-1,-1,-1,-1,-1,-1,-1,-1,-1,-1,-1,-1,-1,-1,-1,-1,-1,-1,-1,-1,-1,-1,-1,-1,-1,-1,-1,-1,-1,-1,-1,-1,-1,-1,-1,-1,-1,-1,-1,-1,-1,-1,-1,-1,-1,-1,-1,-1,-1,-1,-1,-1,-1,-1],"loss_changes":[5.8663687E3,9.2594446E2,5.140513E2,1.3705688E2,2.8093317E2,1.8564417E2,2.2381104E1,1.121535E2,3.698047E1,1.2042934E2,3.7429626E1,1.2724731E1,6.4453316E1,6.1343994E0,0E0,1.4237488E1,3.4287292E1,1.06698E1,1.1834473E1,5.4544964E1,3.5684067E1,1.8284943E1,1.6471046E1,2.6345581E1,9.314636E0,4.0808903E1,1.8058563E1,5.3531494E0,1.0879712E1,1.8280518E1,3.1325684E0,2.0065268E1,9.220703E0,1.7850952E0,1.0015076E1,7.50177E0,5.1962585E0,1.4652763E1,9.24427E0,2.188504E1,3.0569757E1,1.3310486E1,2.7249832E0,1.8926003E1,1.0187866E1,7.875641E0,1.6468029E1,5.2733154E0,1.8332893E1,1.340275E1,1.0419382E1,1.2756989E1,8.502752E0,2.9417725E0,1.1244186E1,5.1290765E0,6.3268976E0,0E0,0E0,0E0,0E0,0E0,0E0,0E0,0E0,0E0,0E0,0E0,0E0,0E0,0E0,0E0,0E0,0E0,0E0,0E0,0E0,0E0,0E0,0E0,0E0,0E0,0E0,0E0,0E0,0E0,0E0,0E0,0E0,0E0,0E0,0E0,0E0,0E0,0E0,0E0,0E0,0E0,0E0,0E0,0E0,0E0,0E0,0E0,0E0,0E0,0E0,0E0,0E0,0E0,0E0,0E0,0E0],"parents":[2147483647,0,0,1,1,2,2,3,3,4,4,5,5,6,6,7,7,8,8,9,9,10,10,11,11,12,12,13,13,15,15,16,16,17,17,18,18,19,19,20,20,21,21,22,22,23,23,24,24,25,25,26,26,27,27,28,28,29,29,30,30,31,31,32,32,33,33,34,34,35,35,36,36,37,37,38,38,39,39,40,40,41,41,42,42,43,43,44,44,45,45,46,46,47,47,48,48,49,49,50,50,51,51,52,52,53,53,54,54,55,55,56,56],"right_children":[2,4,6,8,10,12,14,16,18,20,22,24,26,28,-1,30,32,34,36,38,40,42,44,46,48,50,52,54,56,58,60,62,64,66,68,70,72,74,76,78,80,82,84,86,88,90,92,94,96,98,100,102,104,106,108,110,112,-1,-1,-1,-1,-1,-1,-1,-1,-1,-1,-1,-1,-1,-1,-1,-1,-1,-1,-1,-1,-1,-1,-1,-1,-1,-1,-1,-1,-1,-1,-1,-1,-1,-1,-1,-1,-1,-1,-1,-1,-1,-1,-1,-1,-1,-1,-1,-1,-1,-1,-1,-1,-1,-1,-1,-1],"split_conditions":[1.0342009E0,5.701178E-1,1.5574329E0,3.407775E-1,3.599092E-1,3.2252955E-1,2.1150005E0,3.294892E-1,4.1864288E-1,7.6613325E-1,8.1824505E-1,1.195055E0,1.1781422E0,2.3017912E-1,-7.162773E-2,2.8976607E-1,2.5350267E-1,1.9241326E-1,4.0273637E-1,2.9199168E-1,2.972578E-1,4.8004937E-1,5.489321E3,6.570063E4,6.361987E-1,4.0790424E-1,3.7735716E-1,8.044832E-1,3.1668735E-1,2.6312217E-1,3.398917E-1,1.0978208E4,4.0327558E-1,3.5074973E-1,4.0273637E-1,5.337539E-1,2.0626403E-1,2.100717E-1,5.5911707E4,1.0071887E0,3.3901227E-1,9.388294E3,5.829098E-1,1.966802E4,3.7376016E-1,1.1695412E0,2.4532741E-1,9.99096E-2,1.981788E-1,1.9060232E-1,1.1056643E0,1.2857454E0,4.1368696E3,1.8180741E-2,3.7376016E-1,3.112311E-1,2.3110868E-1,4.230321E-2,1.832392E-2,5.0224986E-2,1.893579E-2,6.614209E-3,-7.03914E-2,3.4845978E-2,2.2229917E-2,4.9927574E-2,6.3114904E-2,4.6327066E-2,5.8953978E-2,3.992873E-2,2.3691474E-2,2.1057626E-2,5.048699E-2,-2.7252052E-2,-9.729177E-4,2.1148901E-2,7.3250434E-3,-1.9406347E-2,-5.358184E-2,-3.7229818E-3,-6.260989E-2,3.2033086E-2,1.8737704E-2,-2.2504034E-3,5.0568324E-2,1.8454561E-2,-2.61381E-2,2.5270558E-3,2.0742591E-2,-4.8866563E-2,-2.6404494E-2,-5.6641128E-2,-1.5175856E-3,-3.8458068E-2,-5.5078056E-2,-4.470841E-2,1.5188727E-2,-2.931646E-2,-5.2357707E-3,3.252634E-2,4.667435E-3,-2.1675285E-2,-4.3002136E-2,-7.4106574E-2,-1.5272351E-2,-2.3101144E-3,-6.27254E-2,-1.4276219E-2,-5.771599E-2,-1.888112E-2,6.8828784E-2,3.517909E-2,-7.247787E-2],"split_indices":[7,7,7,8,8,8,7,7,7,7,7,7,7,6,0,8,8,7,8,8,8,8,3,0,1,8,8,1,8,7,8,3,7,8,8,7,5,8,0,7,5,3,7,0,8,7,8,5,5,5,7,7,3,6,8,8,5,0,0,0,0,0,0,0,0,0,0,0,0,0,0,0,0,0,0,0,0,0,0,0,0,0,0,0,0,0,0,0,0,0,0,0,0,0,0,0,0,0,0,0,0,0,0,0,0,0,0,0,0,0,0,0,0],"split_type":[0,0,0,0,0,0,0,0,0,0,0,0,0,0,0,0,0,0,0,0,0,0,0,0,0,0,0,0,0,0,0,0,0,0,0,0,0,0,0,0,0,0,0,0,0,0,0,0,0,0,0,0,0,0,0,0,0,0,0,0,0,0,0,0,0,0,0,0,0,0,0,0,0,0,0,0,0,0,0,0,0,0,0,0,0,0,0,0,0,0,0,0,0,0,0,0,0,0,0,0,0,0,0,0,0,0,0,0,0,0,0,0,0],"sum_hessian":[1.2154293E4,8.1075186E3,4.046774E3,4.0666104E3,4.0409084E3,2.0157692E3,2.0310046E3,2.0647805E3,2.00183E3,2.4291658E3,1.6117426E3,1.0281807E3,9.875884E2,8.7841876E2,1.1525859E3,1.05102E3,1.0137604E3,1.2243412E3,7.774887E2,1.1339325E3,1.2952333E3,9.622052E2,6.495374E2,3.9347025E2,6.3471045E2,4.307112E2,5.568772E2,8.649988E2,1.3419964E1,5.2422015E2,5.2679987E2,2.381018E2,7.7565857E2,5.192893E2,7.050519E2,4.2924866E2,3.4824008E2,4.6334988E2,6.705826E2,6.114519E2,6.837814E2,8.532389E2,1.0896632E2,9.342404E1,5.5611334E2,3.1269992E2,8.0770325E1,5.4106555E2,9.364494E1,2.9226614E2,1.3844507E2,3.076926E2,2.4918459E2,7.7918616E2,8.5812614E1,5.0634923E0,8.356471E0,4.2366986E2,1.00550316E2,5.17066E2,9.733865E0,2.3031866E2,7.78315E0,1.9972623E2,5.759324E2,5.204405E1,4.6724524E2,3.9738852E2,3.0766336E2,3.315319E2,9.771677E1,1.7775623E1,3.3046445E2,6.0093098E1,4.032568E2,5.1031006E2,1.6027249E2,5.608393E2,5.061259E1,6.619744E2,2.1806944E1,5.6153564E2,2.9170322E2,2.4133556E0,1.06552956E2,4.4533154E1,4.8890892E1,9.2305084E1,4.6380826E2,2.6218243E2,5.0517467E1,1.6164242E1,6.460609E1,6.4945076E1,4.7612045E2,7.895269E1,1.4692249E1,7.8497894E1,2.1376826E2,8.095802E1,5.748705E1,1.1605594E2,1.9163664E2,5.3848524E0,2.4379974E2,2.0983212E0,7.770878E2,2.0219599E1,6.559301E1,2.4860513E0,2.577441E0,1.0085361E0,7.347935E0],"tree_param":{"num_deleted":"0","num_feature":"9","num_nodes":"113","size_leaf_vector":"1"}},{"base_weights":[-5.5004335E-3,4.61615E-1,-9.645346E-1,7.7877784E-1,1.2960988E-1,-5.6507355E-1,-1.2674354E0,5.9083873E-1,9.9938256E-1,-1.4770657E-1,4.0014583E-1,-8.374929E-1,-2.8976786E-1,-1.1193402E0,-6.9618136E-2,7.746734E-1,2.973611E-1,1.1865168E0,9.1753405E-1,5.2238528E-2,-3.0620378E-1,5.882627E-1,2.5379127E-1,-9.1606396E-1,-5.901432E-1,-5.6706257E-2,-4.2456618E-1,-1.1450012E0,-7.2441E-1,6.154163E-1,9.1175437E-1,2.7831022E-2,3.8809E-1,1.0702517E0,1.2299896E0,8.01337E-1,1.0417616E0,-2.607757E-1,1.6686843E-1,-4.8869902E-1,-1.8826118E-1,4.1878834E-1,7.1819264E-1,1.0939875E-1,4.951199E-1,-9.437764E-1,-1.4408648E-2,-5.845375E-2,-7.0318055E-1,-2.1009748E-1,4.6145734E-1,-4.5835522E-1,3.5288176E-1,-1.1630207E0,-7.589602E-1,-2.7651524E-2,-9.458711E-1,3.928383E-2,2.0076018E-2,5.2443683E-2,4.264376E-2,5.7779765E-3,-3.8767766E-2,9.980795E-3,2.5301412E-2,5.488776E-2,2.7845412E-2,3.6091503E-2,6.1810423E-2,-5.018625E-3,4.0493697E-2,5.72158E-2,4.55786E-2,-3.2303825E-3,-3.31111E-2,-8.066676E-2,9.04148E-3,-2.0980744E-2,-5.3076144E-2,-1.659983E-2,3.6096366E-3,-3.210988E-2,2.276902E-2,3.6451574E-2,-4.500973E-2,-1.2683342E-2,9.12322E-3,2.7389351E-2,3.7516083E-3,-6.864987E-3,-4.793405E-2,-6.202778E-2,1.7759366E-2,1.9619137E-2,-4.7073953E-2,-5.0016053E-2,-2.6060075E-2,5.6150905E-4,-2.0576619E-2,4.1498445E-2,1.3060067E-3,-2.083119E-2,-4.9354225E-2,-2.7536342E-4,5.074766E-2,-5.2719362E-2,-6.008653E-2,7.6077105E-3,-5.1976528E-2,-3.3228416E-2,5.601808E-2,-5.828145E-2,5.4989906E-4],"categories":[],"categories_nodes":[],"categories_segments":[],"categories_sizes":[],"default_left":[0,0,0,0,0,0,0,0,0,0,0,0,0,0,0,0,0,0,0,0,0,0,0,0,0,0,0,0,0,0,0,0,0,0,0,0,0,0,0,0,0,0,0,0,0,0,0,0,0,0,0,0,0,0,0,0,0,0,0,0,0,0,0,0,0,0,0,0,0,0,0,0,0,0,0,0,0,0,0,0,0,0,0,0,0,0,0,0,0,0,0,0,0,0,0,0,0,0,0,0,0,0,0,0,0,0,0,0,0,0,0,0,0],"id":11,"left_children":[1,3,5,7,9,11,13,15,17,19,21,23,25,27,-1,29,31,33,35,37,39,41,43,45,47,49,51,53,55,57,59,61,63,65,67,69,71,73,75,77,79,81,83,85,87,89,91,93,95,97,99,101,103,105,107,109,111,-1,-1,-1,-1,-1,-1,-1,-1,-1,-1,-1,-1,-1,-1,-1,-1,-1,-1,-1,-1,-1,-1,-1,-1,-1,-1,-1,-1,-1,-1,-1,-1,-1,-1,-1,-1,-1,-1,-1,-1,-1,-1,-1,-1,-1,-1,-1,-1,-1,-1,-1,-1,-1,-1,-1,-1],"loss_changes":[5.353439E3,8.460952E2,4.7287964E2,1.6979883E2,2.9470642E2,1.2649048E2,3.9612305E1,1.1962781E2,2.784607E1,6.1499596E1,5.4591003E1,1.5955872E1,2.6427826E1,9.541382E0,0E0,2.9245728E1,2.0952812E1,1.5718384E0,1.8200317E1,3.0855766E1,2.320494E1,1.8839752E1,3.8973946E1,1.6037842E1,1.2426254E1,2.4711548E1,1.4170891E1,5.789551E0,1.0028011E1,2.27975E1,5.0126343E0,1.537802E1,1.4153725E1,1.6930237E0,4.0075684E-1,5.35968E0,7.421509E0,1.8115225E1,1.5928797E1,1.6344612E1,2.4698074E1,1.5030548E1,9.26265E0,1.8669413E1,9.228928E0,7.359558E0,9.581514E0,1.528242E1,8.724121E0,1.0688483E1,1.1376558E1,1.0875114E1,5.410158E0,2.5787354E0,1.18287525E1,1.298848E1,1.0403282E1,0E0,0E0,0E0,0E0,0E0,0E0,0E0,0E0,0E0,0E0,0E0,0E0,0E0,0E0,0E0,0E0,0E0,0E0,0E0,0E0,0E0,0E0,0E0,0E0,0E0,0E0,0E0,0E0,0E0,0E0,0E0,0E0,0E0,0E0,0E0,0E0,0E0,0E0,0E0,0E0,0E0,0E0,0E0,0E0,0E0,0E0,0E0,0E0,0E0,0E0,0E0,0E0,0E0,0E0,0E0,0E0],"parents":[2147483647,0,0,1,1,2,2,3,3,4,4,5,5,6,6,7,7,8,8,9,9,10,10,11,11,12,12,13,13,15,15,16,16,17,17,18,18,19,19,20,20,21,21,22,22,23,23,24,24,25,25,26,26,27,27,28,28,29,29,30,30,31,31,32,32,33,33,34,34,35,35,36,36,37,37,38,38,39,39,40,40,41,41,42,42,43,43,44,44,45,45,46,46,47,47,48,48,49,49,50,50,51,51,52,52,53,53,54,54,55,55,56,56],"right_children":[2,4,6,8,10,12,14,16,18,20,22,24,26,28,-1,30,32,34,36,38,40,42,44,46,48,50,52,54,56,58,60,62,64,66,68,70,72,74,76,78,80,82,84,86,88,90,92,94,96,98,100,102,104,106,108,110,112,-1,-1,-1,-1,-1,-1,-1,-1,-1,-1,-1,-1,-1,-1,-1,-1,-1,-1,-1,-1,-1,-1,-1,-1,-1,-1,-1,-1,-1,-1,-1,-1,-1,-1,-1,-1,-1,-1,-1,-1,-1,-1,-1,-1,-1,-1,-1,-1,-1,-1,-1,-1,-1,-1,-1,-1],"split_conditions":[1.0412086E0,5.829098E-1,1.4491059E0,3.482186E-1,3.398917E-1,3.217803E-1,2.0371947E0,4.0327558E-1,2.3964497E-1,7.6613325E-1,7.548043E-1,5.986288E-1,1.1428012E0,1.9084488E-1,-6.9618136E-2,2.8976607E-1,2.6063985E-1,1.4757156E-1,4.0273637E-1,2.6063985E-1,2.7586913E-1,1.8282446E-1,4.0967023E-1,2.8713002E4,2.827717E-1,4.2212424E-1,4.8004937E-1,4.0453857E-1,2.1266322E4,2.2530136E-1,9.892582E-2,9.058758E3,4.288998E3,7.608771E4,1.3862963E4,5.624086E-2,4.606436E-1,7.056497E-1,3.752559E-2,1.0071887E0,1.0425947E4,6.252244E-1,1.1213671E5,5.267811E3,1.7763525E4,1.4554782E-1,2.4114761E-1,1.2857454E0,6.361987E-1,3.1307082E4,1.0701808E4,8.228178E4,6.8552484E4,1.5694346E0,1.5431924E0,1.9531291E4,2.5424016E4,3.928383E-2,2.0076018E-2,5.2443683E-2,4.264376E-2,5.7779765E-3,-3.8767766E-2,9.980795E-3,2.5301412E-2,5.488776E-2,2.7845412E-2,3.6091503E-2,6.1810423E-2,-5.018625E-3,4.0493697E-2,5.72158E-2,4.55786E-2,-3.2303825E-3,-3.31111E-2,-8.066676E-2,9.04148E-3,-2.0980744E-2,-5.3076144E-2,-1.659983E-2,3.6096366E-3,-3.210988E-2,2.276902E-2,3.6451574E-2,-4.500973E-2,-1.2683342E-2,9.12322E-3,2.7389351E-2,3.7516083E-3,-6.864987E-3,-4.793405E-2,-6.202778E-2,1.7759366E-2,1.9619137E-2,-4.7073953E-2,-5.0016053E-2,-2.6060075E-2,5.6150905E-4,-2.0576619E-2,4.1498445E-2,1.3060067E-3,-2.083119E-2,-4.9354225E-2,-2.7536342E-4,5.074766E-2,-5.2719362E-2,-6.008653E-2,7.6077105E-3,-5.1976528E-2,-3.3228416E-2,5.601808E-2,-5.828145E-2,5.4989906E-4],"split_indices":[7,7,7,8,8,8,7,7,7,7,7,1,7,6,0,8,8,6,8,8,8,6,8,3,8,8,8,8,2,7,7,3,3,2,0,6,7,7,6,7,3,1,2,3,3,8,8,7,1,2,3,0,0,7,7,2,3,0,0,0,0,0,0,0,0,0,0,0,0,0,0,0,0,0,0,0,0,0,0,0,0,0,0,0,0,0,0,0,0,0,0,0,0,0,0,0,0,0,0,0,0,0,0,0,0,0,0,0,0,0,0,0,0],"split_type":[0,0,0,0,0,0,0,0,0,0,0,0,0,0,0,0,0,0,0,0,0,0,0,0,0,0,0,0,0,0,0,0,0,0,0,0,0,0,0,0,0,0,0,0,0,0,0,0,0,0,0,0,0,0,0,0,0,0,0,0,0,0,0,0,0,0,0,0,0,0,0,0,0,0,0,0,0,0,0,0,0,0,0,0,0,0,0,0,0,0,0,0,0,0,0,0,0,0,0,0,0,0,0,0,0,0,0,0,0,0,0,0,0],"sum_hessian":[1.1948188E4,8.0350747E3,3.9131138E3,4.108704E3,3.9263704E3,1.6888068E3,2.2243071E3,2.2205967E3,1.8881075E3,1.939112E3,1.9872584E3,8.478267E2,8.4098E2,1.0223366E3,1.2019706E3,1.3643357E3,8.56261E2,5.704238E2,1.3176837E3,8.577395E2,1.0813726E3,8.682428E2,1.1190155E3,6.413858E2,2.0644092E2,3.0868866E2,5.322913E2,9.581788E2,6.415782E1,6.3365784E2,7.306779E2,2.1597295E2,6.40288E2,1.6221371E2,4.0821008E2,6.8469775E2,6.3298596E2,2.2957512E2,6.2816437E2,4.232794E2,6.580932E2,3.7861664E2,4.896262E2,7.010277E2,4.1798785E2,6.222152E2,1.9170588E1,3.6460434E1,1.6998048E2,2.3863919E2,7.004948E1,5.1051404E2,2.177726E1,9.1352484E2,4.465392E1,1.5745226E1,4.8412598E1,3.5132855E2,2.8232925E2,2.1444937E2,5.162285E2,1.9547787E2,2.0495064E1,2.4748341E2,3.9280463E2,1.5288419E2,9.329522E0,6.3506155E0,4.018595E2,6.3207235E0,6.78377E2,3.4971497E2,2.83271E2,1.549965E2,7.457861E1,3.9965808E0,6.241678E2,3.792708E2,4.400859E1,4.23889E2,2.3420418E2,1.2070906E1,3.6654575E2,4.8691467E2,2.7115037E0,1.1703001E2,5.839977E2,3.7115195E2,4.6835915E1,1.1475882E1,6.107393E2,3.8943696E0,1.5276218E1,2.4504885E1,1.195555E1,6.285394E1,1.0712654E2,1.1415502E2,1.2448417E2,3.7445496E1,3.2603985E1,4.7482516E2,3.5688896E1,1.4772415E1,7.0048447E0,2.4741884E2,6.66106E2,1.0621081E1,3.403284E1,1.0397703E1,5.3475227E0,3.9193184E1,9.219416E0],"tree_param":{"num_deleted":"0","num_feature":"9","num_nodes":"113","size_leaf_vector":"1"}},{"base_weights":[-8.6643384E-4,4.50433E-1,-9.186099E-1,7.751788E-1,1.4966433E-1,-5.291241E-1,-1.2507074E0,5.883416E-1,9.6752894E-1,-8.878816E-2,3.9804852E-1,-7.952115E-1,-2.6610205E-1,-1.1205143E0,-6.857221E-2,7.61958E-1,3.6022282E-1,1.1013185E0,8.482541E-1,1.2433102E-1,-2.6281852E-1,5.247701E-1,2.0069975E-1,-8.454649E-1,-4.835738E-1,-1.5019968E-1,-6.304806E-1,-1.0264605E0,-1.2036053E0,8.7225336E-1,6.3024503E-1,2.0478542E-1,5.295964E-1,1.039745E0,6.232466E-2,7.47304E-1,9.735024E-1,-3.5714397E-1,2.176163E-1,-4.4529104E-1,-1.3746448E-1,4.5950067E-1,7.751707E-1,1.1384517E-2,3.6233655E-1,-9.5541114E-1,-7.444958E-1,-1.1858608E0,-2.2865736E-1,-2.5279608E-1,2.8636464E-1,-8.789158E-1,-3.7770528E-1,-1.1037188E0,-7.4669325E-1,-1.2075628E0,-2.2360371E-1,3.6865287E-2,4.7392216E-2,2.2510847E-2,3.9865457E-2,-4.3115478E-2,1.2305184E-2,-1.9700134E-2,2.7633606E-2,5.5594172E-2,4.682968E-2,-4.6315737E-2,3.780774E-2,4.9025174E-2,-2.9116843E-2,9.45967E-3,-3.1125084E-2,2.087589E-3,1.5307511E-2,-1.6497301E-2,-3.9316278E-2,-1.4072559E-2,6.2564746E-3,2.712352E-2,1.8274367E-2,3.9570425E-2,-3.7494007E-2,-1.3005077E-2,6.492063E-3,1.36066405E-2,3.3081826E-2,-1.092116E-2,-4.902491E-2,-3.3080712E-2,-5.3982746E-2,-1.3701985E-2,-6.704026E-2,-2.1562792E-2,5.016442E-2,-1.0292086E-2,-3.168833E-2,5.627909E-2,8.360805E-3,-2.6656358E-2,-5.5798896E-2,-1.3244857E-2,-7.316958E-2,-2.105274E-2,-5.6251224E-2,2.426674E-2,-4.0198214E-2,-6.6715896E-2,-5.8485758E-2,3.509988E-2,-4.5540567E-2],"categories":[],"categories_nodes":[],"categories_segments":[],"categories_sizes":[],"default_left":[0,0,0,0,0,0,0,0,0,0,0,0,0,0,0,0,0,0,0,0,0,0,0,0,0,0,0,0,0,0,0,0,0,0,0,0,0,0,0,0,0,0,0,0,0,0,0,0,0,0,0,0,0,0,0,0,0,0,0,0,0,0,0,0,0,0,0,0,0,0,0,0,0,0,0,0,0,0,0,0,0,0,0,0,0,0,0,0,0,0,0,0,0,0,0,0,0,0,0,0,0,0,0,0,0,0,0,0,0,0,0],"id":12,"left_children":[1,3,5,7,9,11,13,15,17,19,21,23,25,27,-1,29,31,33,35,37,39,41,43,45,47,49,51,53,55,57,59,61,63,65,-1,67,69,71,73,75,77,79,81,83,85,87,89,91,93,95,97,99,101,103,105,107,109,-1,-1,-1,-1,-1,-1,-1,-1,-1,-1,-1,-1,-1,-1,-1,-1,-1,-1,-1,-1,-1,-1,-1,-1,-1,-1,-1,-1,-1,-1,-1,-1,-1,-1,-1,-1,-1,-1,-1,-1,-1,-1,-1,-1,-1,-1,-1,-1,-1,-1,-1,-1,-1,-1],"loss_changes":[4.923295E3,7.781896E2,5.0618237E2,1.3711938E2,2.4513132E2,1.26125244E2,3.1698486E1,7.6798706E1,2.9165771E1,7.836963E1,5.0588226E1,1.3636475E1,3.8307487E1,6.7578125E0,0E0,1.5490234E1,2.2082764E1,6.6209717E0,1.1936096E1,4.2751656E1,2.6541054E1,1.980841E1,2.4300629E1,7.847351E0,2.244258E1,3.1030495E1,1.34285965E1,9.692139E0,1.8135376E0,5.4045105E0,1.4884018E1,1.966348E1,8.801254E0,3.6311646E0,0E0,8.978943E0,5.4038696E0,2.2528704E1,1.2389156E1,1.8352966E1,2.6156334E1,7.454956E0,6.8747253E0,1.183125E1,1.1386436E1,6.5443726E0,1.057547E1,4.372513E0,2.3975367E1,9.890362E0,1.3010036E1,8.402184E0,1.3129404E1,5.0411377E0,8.03714E0,1.005249E0,2.7944858E0,0E0,0E0,0E0,0E0,0E0,0E0,0E0,0E0,0E0,0E0,0E0,0E0,0E0,0E0,0E0,0E0,0E0,0E0,0E0,0E0,0E0,0E0,0E0,0E0,0E0,0E0,0E0,0E0,0E0,0E0,0E0,0E0,0E0,0E0,0E0,0E0,0E0,0E0,0E0,0E0,0E0,0E0,0E0,0E0,0E0,0E0,0E0,0E0,0E0,0E0,0E0,0E0,0E0,0E0],"parents":[2147483647,0,0,1,1,2,2,3,3,4,4,5,5,6,6,7,7,8,8,9,9,10,10,11,11,12,12,13,13,15,15,16,16,17,17,18,18,19,19,20,20,21,21,22,22,23,23,24,24,25,25,26,26,27,27,28,28,29,29,30,30,31,31,32,32,33,33,35,35,36,36,37,37,38,38,39,39,40,40,41,41,42,42,43,43,44,44,45,45,46,46,47,47,48,48,49,49,50,50,51,51,52,52,53,53,54,54,55,55,56,56],"right_children":[2,4,6,8,10,12,14,16,18,20,22,24,26,28,-1,30,32,34,36,38,40,42,44,46,48,50,52,54,56,58,60,62,64,66,-1,68,70,72,74,76,78,80,82,84,86,88,90,92,94,96,98,100,102,104,106,108,110,-1,-1,-1,-1,-1,-1,-1,-1,-1,-1,-1,-1,-1,-1,-1,-1,-1,-1,-1,-1,-1,-1,-1,-1,-1,-1,-1,-1,-1,-1,-1,-1,-1,-1,-1,-1,-1,-1,-1,-1,-1,-1,-1,-1,-1,-1,-1,-1,-1,-1,-1,-1,-1,-1],"split_conditions":[1.0342009E0,5.5787605E-1,1.4750826E0,3.414897E-1,3.4293914E-1,3.217803E-1,2.1150005E0,3.5870105E-1,3.3955768E-1,7.490274E-1,8.1824505E-1,6.167651E4,1.3055525E0,1.713141E0,-6.857221E-2,1.9241326E-1,4.705418E3,4.2212424E-1,4.0127227E-1,2.4427254E-1,2.7975723E-1,4.4435394E-1,3.8839063E-1,5.140789E-1,2.4532741E-1,4.2832604E-1,3.504323E4,3.563095E-1,4.6305385E-1,2.716158E-1,2.8976607E-1,1.9177496E-1,2.7710003E-1,1.9241326E-1,6.232466E-2,8.8277556E-2,1.3341992E5,1.6735E-1,2.8758532E-1,9.5715857E-1,1.0356207E4,6.9584453E-1,1.1851658E5,3.1789195E4,4.6305385E-1,1.4554782E-1,1.3769757E0,1.0833845E0,2.7111092E-1,6.3744523E4,6.687168E-1,2.7767492E4,9.033464E4,6.416282E-2,3.5809457E-1,6.1384746E3,4.6808675E-1,3.6865287E-2,4.7392216E-2,2.2510847E-2,3.9865457E-2,-4.3115478E-2,1.2305184E-2,-1.9700134E-2,2.7633606E-2,5.5594172E-2,4.682968E-2,-4.6315737E-2,3.780774E-2,4.9025174E-2,-2.9116843E-2,9.45967E-3,-3.1125084E-2,2.087589E-3,1.5307511E-2,-1.6497301E-2,-3.9316278E-2,-1.4072559E-2,6.2564746E-3,2.712352E-2,1.8274367E-2,3.9570425E-2,-3.7494007E-2,-1.3005077E-2,6.492063E-3,1.36066405E-2,3.3081826E-2,-1.092116E-2,-4.902491E-2,-3.3080712E-2,-5.3982746E-2,-1.3701985E-2,-6.704026E-2,-2.1562792E-2,5.016442E-2,-1.0292086E-2,-3.168833E-2,5.627909E-2,8.360805E-3,-2.6656358E-2,-5.5798896E-2,-1.3244857E-2,-7.316958E-2,-2.105274E-2,-5.6251224E-2,2.426674E-2,-4.0198214E-2,-6.6715896E-2,-5.8485758E-2,3.509988E-2,-4.5540567E-2],"split_indices":[7,7,7,8,8,8,7,7,7,7,7,2,7,7,0,7,3,8,8,8,8,8,8,1,8,8,2,8,8,8,8,8,1,7,0,5,2,5,8,7,3,7,0,0,8,8,7,7,5,2,1,0,0,5,8,3,8,0,0,0,0,0,0,0,0,0,0,0,0,0,0,0,0,0,0,0,0,0,0,0,0,0,0,0,0,0,0,0,0,0,0,0,0,0,0,0,0,0,0,0,0,0,0,0,0,0,0,0,0,0,0],"split_type":[0,0,0,0,0,0,0,0,0,0,0,0,0,0,0,0,0,0,0,0,0,0,0,0,0,0,0,0,0,0,0,0,0,0,0,0,0,0,0,0,0,0,0,0,0,0,0,0,0,0,0,0,0,0,0,0,0,0,0,0,0,0,0,0,0,0,0,0,0,0,0,0,0,0,0,0,0,0,0,0,0,0,0,0,0,0,0,0,0,0,0,0,0,0,0,0,0,0,0,0,0,0,0,0,0,0,0,0,0,0,0],"sum_hessian":[1.1884932E4,7.967454E3,3.917478E3,3.830265E3,4.137189E3,1.8041515E3,2.1133267E3,1.945035E3,1.8852299E3,2.1111228E3,2.0260663E3,8.9584375E2,9.0830774E2,1.02178925E3,1.0915374E3,1.1031274E3,8.4190753E2,8.846702E2,1.00055963E3,9.4911426E2,1.1620085E3,1.2328013E3,7.93265E2,7.6996875E2,1.25875E2,6.901845E2,2.1812328E2,4.8554095E2,5.362483E2,5.973169E2,5.058106E2,4.4016693E2,4.0174057E2,6.2693024E2,2.5773996E2,5.5787744E2,4.4268222E2,1.5358496E2,7.955293E2,4.7215717E2,6.898514E2,9.801505E2,2.5265077E2,3.6584442E2,4.274206E2,3.6454727E2,4.0542148E2,3.2549675E1,9.3325325E1,5.5919073E2,1.3099373E2,1.0875678E2,1.09366486E2,3.7816492E2,1.0737604E2,5.338602E2,2.388092E0,2.1831926E2,3.7899762E2,2.4523766E2,2.6057294E2,1.5667382E1,4.2449954E2,9.400834E0,3.9233975E2,3.6317004E2,2.6376022E2,2.3894427E0,5.55488E2,4.4106723E2,1.6149712E0,5.030352E1,1.0328144E2,2.6687604E2,5.2865326E2,3.542947E2,1.1786246E2,4.4550067E2,2.4435072E2,5.1812177E2,4.6202875E2,2.5046504E2,2.1857374E0,1.1077289E2,2.5507152E2,3.2990292E2,9.751767E1,1.232023E1,3.5222705E2,3.2742624E2,7.799525E1,5.129877E0,2.7419798E1,8.070328E1,1.2622044E1,4.9920447E2,5.998629E1,1.5235605E1,1.1575812E2,4.5555916E1,6.3200867E1,1.0019928E2,9.167205E0,1.207361E1,3.660913E2,4.437656E0,1.02938385E2,1.148761E2,4.189841E2,1.0083805E0,1.3797116E0],"tree_param":{"num_deleted":"0","num_feature":"9","num_nodes":"111","size_leaf_vector":"1"}},{"base_weights":[4.971319E-3,4.6366486E-1,-8.2668555E-1,7.595721E-1,2.0339474E-1,-4.8767763E-1,-1.2472419E0,5.847136E-1,9.4813365E-1,-1.2085704E-2,4.496054E-1,-8.097889E-1,-2.6063263E-1,-1.1079758E0,-6.735654E-2,7.7410704E-1,3.7299868E-1,1.0700109E0,8.415659E-1,1.4116333E-1,-2.0858234E-1,5.5174494E-1,2.2942008E-1,-6.5639096E-1,-9.4731945E-1,-4.0428317E-1,2.4230523E-2,-1.1261189E0,-1.5561165E-1,6.67551E-1,8.788374E-1,1.12156635E-2,4.2074245E-1,1.0051559E0,6.1251212E-2,7.276736E-1,9.869821E-1,